{"learner":{"attributes":{"best_iteration":"331","best_score":"0.8297133942225025","scikit_learn":"{\"_estimator_type\": \"classifier\"}"},"feature_names":["A_weather_delay_rate","A_weather_cancel_rate","A_avg_weather_delay_min","A_p75_weather_delay_min","A_p95_weather_delay_min","A_nas_delay_rate","A_overall_weather_delay_rate","A_overall_avg_weather_delay_min","B_weather_delay_rate","B_weather_cancel_rate","B_avg_weather_delay_min","B_p75_weather_delay_min","B_p95_weather_delay_min","B_nas_delay_rate","B_overall_weather_delay_rate","B_overall_avg_weather_delay_min","pair_combined_weather_rate","pair_min_weather_rate","pair_weather_rate_sum","pair_avg_weather_delay_min","both_high_risk","Month","is_spring_summer","median_turnaround_min","A_avg_wind_speed","A_precip_days","A_extreme_precip","A_total_precip","A_max_wind_gust","B_avg_wind_speed","B_precip_days","B_extreme_precip","B_total_precip","B_max_wind_gust","pair_max_avg_wind_speed","pair_max_precip_days","pair_max_extreme_precip","pair_max_total_precip","pair_max_max_wind_gust","DFW_weather_delay_rate","DFW_weather_cancel_rate","DFW_avg_weather_delay_min","DFW_p95_weather_delay_min","tc_legs_before_mean","tc_block_before_mean","tc_duty_start_hour","tc_total_duty_mean","tc_total_duty_p75","tc_fdp_util_mean","tc_fdp_util_p75","tc_fdp_overrun_rate","tc_wocl_rate","tc_legs_after_mean","tc_legs_in_day_mean","tc_downstream_rate","tc_cascade_late_rate","tc_cascade_late_min","tc_cascade_amplif_mean","mhc_n_hops_mean","mhc_n_hops_max","mhc_total_late_min_mean","mhc_total_late_min_p75","mhc_cascade_hop_rate","mhc_cascade_depth_mean","mhc_unique_airports_mean","mhc_recovery_rate","season_fall","season_spring","season_summer","season_winter"],"feature_types":["float","float","float","float","float","float","float","float","float","float","float","float","float","float","float","float","float","float","float","float","float","float","float","float","float","float","float","float","float","float","float","float","float","float","float","float","float","float","float","float","float","float","float","float","float","float","float","float","float","float","float","float","float","float","float","float","float","float","float","float","float","float","float","float","float","float","float","float","float","float"],"gradient_booster":{"model":{"cats":{"enc":[],"feature_segments":[],"sorted_idx":[]},"gbtree_model_param":{"num_parallel_tree":"1","num_trees":"362"},"iteration_indptr":[0,1,2,3,4,5,6,7,8,9,10,11,12,13,14,15,16,17,18,19,20,21,22,23,24,25,26,27,28,29,30,31,32,33,34,35,36,37,38,39,40,41,42,43,44,45,46,47,48,49,50,51,52,53,54,55,56,57,58,59,60,61,62,63,64,65,66,67,68,69,70,71,72,73,74,75,76,77,78,79,80,81,82,83,84,85,86,87,88,89,90,91,92,93,94,95,96,97,98,99,100,101,102,103,104,105,106,107,108,109,110,111,112,113,114,115,116,117,118,119,120,121,122,123,124,125,126,127,128,129,130,131,132,133,134,135,136,137,138,139,140,141,142,143,144,145,146,147,148,149,150,151,152,153,154,155,156,157,158,159,160,161,162,163,164,165,166,167,168,169,170,171,172,173,174,175,176,177,178,179,180,181,182,183,184,185,186,187,188,189,190,191,192,193,194,195,196,197,198,199,200,201,202,203,204,205,206,207,208,209,210,211,212,213,214,215,216,217,218,219,220,221,222,223,224,225,226,227,228,229,230,231,232,233,234,235,236,237,238,239,240,241,242,243,244,245,246,247,248,249,250,251,252,253,254,255,256,257,258,259,260,261,262,263,264,265,266,267,268,269,270,271,272,273,274,275,276,277,278,279,280,281,282,283,284,285,286,287,288,289,290,291,292,293,294,295,296,297,298,299,300,301,302,303,304,305,306,307,308,309,310,311,312,313,314,315,316,317,318,319,320,321,322,323,324,325,326,327,328,329,330,331,332,333,334,335,336,337,338,339,340,341,342,343,344,345,346,347,348,349,350,351,352,353,354,355,356,357,358,359,360,361,362],"tree_info":[0,0,0,0,0,0,0,0,0,0,0,0,0,0,0,0,0,0,0,0,0,0,0,0,0,0,0,0,0,0,0,0,0,0,0,0,0,0,0,0,0,0,0,0,0,0,0,0,0,0,0,0,0,0,0,0,0,0,0,0,0,0,0,0,0,0,0,0,0,0,0,0,0,0,0,0,0,0,0,0,0,0,0,0,0,0,0,0,0,0,0,0,0,0,0,0,0,0,0,0,0,0,0,0,0,0,0,0,0,0,0,0,0,0,0,0,0,0,0,0,0,0,0,0,0,0,0,0,0,0,0,0,0,0,0,0,0,0,0,0,0,0,0,0,0,0,0,0,0,0,0,0,0,0,0,0,0,0,0,0,0,0,0,0,0,0,0,0,0,0,0,0,0,0,0,0,0,0,0,0,0,0,0,0,0,0,0,0,0,0,0,0,0,0,0,0,0,0,0,0,0,0,0,0,0,0,0,0,0,0,0,0,0,0,0,0,0,0,0,0,0,0,0,0,0,0,0,0,0,0,0,0,0,0,0,0,0,0,0,0,0,0,0,0,0,0,0,0,0,0,0,0,0,0,0,0,0,0,0,0,0,0,0,0,0,0,0,0,0,0,0,0,0,0,0,0,0,0,0,0,0,0,0,0,0,0,0,0,0,0,0,0,0,0,0,0,0,0,0,0,0,0,0,0,0,0,0,0,0,0,0,0,0,0,0,0,0,0,0,0,0,0,0,0,0,0,0,0,0,0,0,0,0,0,0,0,0,0,0,0,0,0,0,0,0,0,0,0,0,0,0,0,0,0,0,0,0,0,0,0,0,0],"trees":[{"base_weights":[4.9570814E-4,-5.821588E-1,5.7731193E-1,-8.9632654E-1,-2.1633436E-1,3.0447534E-1,1.2462746E0,-9.815654E-1,-6.740211E-2,-5.0958157E-1,4.8928577E-1,-2.6314363E-2,6.757455E-1,1.6495339E0,8.80363E-1,-1.0901715E0,-4.6164072E-1,-7.3145914E-1,1.088269E-1,-7.382344E-1,-1.5182818E-1,-6.0639717E-2,8.3268595E-1,-5.08748E-1,1.937146E-1,4.386195E-1,1.1438233E0,-4.3392944E-1,1.6840545E0,-1.6660012E-1,1.0024838E0,-1.386104E0,-9.6626455E-1,-1.0831864E0,-3.6068726E-1,-8.9881796E-1,-3.4477526E-1,-2.1011446E-1,3.6373454E-1,-1.1534733E0,-5.9913474E-1,-3.6696455E-1,1.68619E-1,1.33223E-1,-6.0733336E-1,3.9398038E-1,1.1197166E0,-1.0964333E0,-4.1651368E-1,-9.245197E-1,2.5389215E-1,1.627142E-1,8.8496816E-1,9.190532E-1,1.5090222E0,-1.2820579E0,4.4327486E-2,1.463279E0,1.8191618E0,-7.0537275E-1,1.914381E-1,2.9653466E-1,1.0991384E0,-7.005111E-2,8.471332E-3,-6.694762E-2,-4.391449E-2,-1.4192121E-2,-5.707574E-2,-3.4746934E-2,-2.8239847E-3,-4.058091E-2,-7.3928885E-2,-7.1076946E-3,-4.465037E-2,-2.2118173E-3,-4.410087E-2,9.869939E-3,3.6887307E-2,-5.9267648E-2,-1.1911524E-2,-2.3656607E-2,-4.9924504E-2,1.7549671E-2,-2.2968313E-2,-4.330501E-3,2.6435817E-2,-2.4073485E-2,1.802249E-2,-5.6177955E-2,-2.2087991E-2,6.15978E-2,1.3531454E-2,4.324739E-2,7.9641044E-2,-8.372321E-2,-4.7398087E-2,-1.7081475E-2,-5.807359E-2,-5.1382076E-2,2.0848604E-2,-2.5024518E-2,1.6073165E-2,-4.609723E-2,1.2899901E-2,-5.3082865E-2,4.6442308E-2,3.0562798E-2,5.6531306E-2,6.32004E-2,8.5567735E-2,-3.9627425E-2,-7.273115E-2,-2.9297197E-2,3.1680252E-2,6.484946E-2,8.816199E-2,-7.729688E-2,9.1187745E-2,-9.525139E-3,-6.432598E-2,2.008725E-2,-1.8558638E-2,2.1674936E-3,3.91515E-2,4.571703E-2,6.8247825E-2],"categories":[],"categories_nodes":[],"categories_segments":[],"categories_sizes":[],"default_left":[1,1,0,1,0,1,0,0,0,0,0,0,1,0,0,0,0,0,0,0,0,0,0,0,0,0,0,0,0,0,0,0,0,0,0,0,0,0,0,0,0,0,0,0,0,0,0,0,0,0,0,0,0,1,0,0,0,1,0,0,0,0,0,0,0,0,0,0,0,0,0,0,0,0,0,0,0,0,0,0,0,0,0,0,0,0,0,0,0,0,0,0,0,0,0,0,0,0,0,0,0,0,0,0,0,0,0,0,0,0,0,0,0,0,0,0,0,0,0,0,0,0,0,0,0,0,0],"id":0,"left_children":[1,3,5,7,9,11,13,15,17,19,21,23,25,27,29,31,33,35,37,39,41,43,45,47,49,51,53,55,57,59,61,63,65,67,69,71,73,75,77,79,81,83,85,87,89,91,93,95,97,99,101,103,105,107,109,111,113,115,117,119,121,123,125,-1,-1,-1,-1,-1,-1,-1,-1,-1,-1,-1,-1,-1,-1,-1,-1,-1,-1,-1,-1,-1,-1,-1,-1,-1,-1,-1,-1,-1,-1,-1,-1,-1,-1,-1,-1,-1,-1,-1,-1,-1,-1,-1,-1,-1,-1,-1,-1,-1,-1,-1,-1,-1,-1,-1,-1,-1,-1,-1,-1,-1,-1,-1,-1],"loss_changes":[1.6543369E5,2.8143898E4,4.5146867E4,9.308305E3,2.3411283E4,2.1578229E4,1.0572305E4,6.744875E3,1.4377369E3,6.5378438E3,6.2727256E3,9.86315E3,9.18809E3,2.4524688E3,4.803875E3,3.6220234E3,1.2949072E3,1.6643372E2,7.8945166E2,2.81567E3,2.1486216E3,1.3534281E3,2.57437E3,1.577125E3,4.2944175E3,6.7669473E3,2.2835508E3,2.2574524E2,9.975781E2,7.5736743E2,2.295496E3,6.769414E2,2.2826094E3,1.341372E2,1.8058499E3,8.968042E1,8.65102E1,4.8072772E2,3.3559448E2,3.566836E2,1.8375508E3,1.2372263E3,1.1506803E3,1.3169507E3,2.8523718E2,8.357539E2,1.4884023E3,3.371919E2,1.4030366E3,4.5126343E2,3.0869534E3,3.5100186E3,1.7939102E3,1.1215752E3,5.2350195E2,1.5796936E1,1.3286763E2,6.329707E2,3.2428906E2,4.6874677E2,2.7927838E2,4.9922644E2,1.4525039E3,0E0,0E0,0E0,0E0,0E0,0E0,0E0,0E0,0E0,0E0,0E0,0E0,0E0,0E0,0E0,0E0,0E0,0E0,0E0,0E0,0E0,0E0,0E0,0E0,0E0,0E0,0E0,0E0,0E0,0E0,0E0,0E0,0E0,0E0,0E0,0E0,0E0,0E0,0E0,0E0,0E0,0E0,0E0,0E0,0E0,0E0,0E0,0E0,0E0,0E0,0E0,0E0,0E0,0E0,0E0,0E0,0E0,0E0,0E0,0E0,0E0,0E0,0E0,0E0],"parents":[2147483647,0,0,1,1,2,2,3,3,4,4,5,5,6,6,7,7,8,8,9,9,10,10,11,11,12,12,13,13,14,14,15,15,16,16,17,17,18,18,19,19,20,20,21,21,22,22,23,23,24,24,25,25,26,26,27,27,28,28,29,29,30,30,31,31,32,32,33,33,34,34,35,35,36,36,37,37,38,38,39,39,40,40,41,41,42,42,43,43,44,44,45,45,46,46,47,47,48,48,49,49,50,50,51,51,52,52,53,53,54,54,55,55,56,56,57,57,58,58,59,59,60,60,61,61,62,62],"right_children":[2,4,6,8,10,12,14,16,18,20,22,24,26,28,30,32,34,36,38,40,42,44,46,48,50,52,54,56,58,60,62,64,66,68,70,72,74,76,78,80,82,84,86,88,90,92,94,96,98,100,102,104,106,108,110,112,114,116,118,120,122,124,126,-1,-1,-1,-1,-1,-1,-1,-1,-1,-1,-1,-1,-1,-1,-1,-1,-1,-1,-1,-1,-1,-1,-1,-1,-1,-1,-1,-1,-1,-1,-1,-1,-1,-1,-1,-1,-1,-1,-1,-1,-1,-1,-1,-1,-1,-1,-1,-1,-1,-1,-1,-1,-1,-1,-1,-1,-1,-1,-1,-1,-1,-1,-1,-1],"split_conditions":[1.73E0,2.2E0,1E0,-1E-5,1E0,2.25E0,4.96E0,1.958385E-2,1.0660591E-2,1.034378E-2,7.857264E-1,1.0660591E-2,-1E-5,7.70913E-3,5.1299343E-3,1.0660591E-2,1.1528735E-2,1.21212125E-1,1.5625E-1,4.9944124E-3,6.9497325E-2,1.682495E0,6.139128E-2,3.671758E-3,5.422034E-3,1E0,1E0,1.119643E-2,7.857264E-1,3.1619312E-3,2.0833334E-3,3.799283E-2,6.4776517E-3,2.8837687E-1,6E0,2.0202227E0,1E1,1.7764027E0,1E0,1.2472058E-1,1.682495E0,1.142E3,1.7074136E-2,4.5576736E-1,6.4776517E-3,6E0,1.2733708E-2,1.8709677E-1,1.1208494E0,1.2910844E-1,4.843123E-3,3.671758E-3,7.70913E-3,-1E-5,6.108996E-2,5.958292E-3,6.9497325E-2,4E-1,5.4522622E-3,1.9352869E-3,1.4281459E-2,6.69099E-2,1.5625E-1,-7.005111E-2,8.471332E-3,-6.694762E-2,-4.391449E-2,-1.4192121E-2,-5.707574E-2,-3.4746934E-2,-2.8239847E-3,-4.058091E-2,-7.3928885E-2,-7.1076946E-3,-4.465037E-2,-2.2118173E-3,-4.410087E-2,9.869939E-3,3.6887307E-2,-5.9267648E-2,-1.1911524E-2,-2.3656607E-2,-4.9924504E-2,1.7549671E-2,-2.2968313E-2,-4.330501E-3,2.6435817E-2,-2.4073485E-2,1.802249E-2,-5.6177955E-2,-2.2087991E-2,6.15978E-2,1.3531454E-2,4.324739E-2,7.9641044E-2,-8.372321E-2,-4.7398087E-2,-1.7081475E-2,-5.807359E-2,-5.1382076E-2,2.0848604E-2,-2.5024518E-2,1.6073165E-2,-4.609723E-2,1.2899901E-2,-5.3082865E-2,4.6442308E-2,3.0562798E-2,5.6531306E-2,6.32004E-2,8.5567735E-2,-3.9627425E-2,-7.273115E-2,-2.9297197E-2,3.1680252E-2,6.484946E-2,8.816199E-2,-7.729688E-2,9.1187745E-2,-9.525139E-3,-6.432598E-2,2.008725E-2,-1.8558638E-2,2.1674936E-3,3.91515E-2,4.571703E-2,6.8247825E-2],"split_indices":[29,24,68,57,68,24,24,39,39,17,2,39,43,14,17,39,17,63,4,17,5,15,5,17,17,67,67,0,2,17,1,0,17,15,21,10,21,15,68,13,15,47,0,10,17,43,6,10,10,5,1,17,14,57,5,1,5,48,0,0,6,5,4,0,0,0,0,0,0,0,0,0,0,0,0,0,0,0,0,0,0,0,0,0,0,0,0,0,0,0,0,0,0,0,0,0,0,0,0,0,0,0,0,0,0,0,0,0,0,0,0,0,0,0,0,0,0,0,0,0,0,0,0,0,0,0,0],"split_type":[0,0,0,0,0,0,0,0,0,0,0,0,0,0,0,0,0,0,0,0,0,0,0,0,0,0,0,0,0,0,0,0,0,0,0,0,0,0,0,0,0,0,0,0,0,0,0,0,0,0,0,0,0,0,0,0,0,0,0,0,0,0,0,0,0,0,0,0,0,0,0,0,0,0,0,0,0,0,0,0,0,0,0,0,0,0,0,0,0,0,0,0,0,0,0,0,0,0,0,0,0,0,0,0,0,0,0,0,0,0,0,0,0,0,0,0,0,0,0,0,0,0,0,0,0,0,0],"sum_hessian":[4.9223625E5,2.4487884E5,2.473574E5,1.3173995E5,1.1313888E5,1.7569969E5,7.165772E4,1.1945602E5,1.2283929E4,7.99238E4,3.321509E4,9.291572E4,8.278398E4,3.4087496E4,3.757022E4,9.88139E4,2.0642125E4,2.5755867E3,9.708342E3,4.8759082E4,3.1164713E4,1.2768412E4,2.0446678E4,2.910313E4,6.3812586E4,5.4949008E4,2.7834967E4,5.55399E2,3.3532098E4,3.9244934E3,3.3645727E4,2.915986E4,6.965404E4,2.8829263E3,1.77592E4,1.7966587E3,7.789279E2,4.31259E3,5.3957524E3,1.2233239E4,3.6525844E4,1.86462E4,1.2518514E4,9.426458E3,3.3419546E3,8.0876562E3,1.23590205E4,3.9465002E3,2.515663E4,3.257962E3,6.0554625E4,3.3959004E4,2.0990002E4,1.7232406E4,1.0602562E4,1.996551E2,3.5574387E2,1.2734605E4,2.0797492E4,1.5664076E3,2.358086E3,4.0523188E3,2.9593406E4,2.8882957E4,2.7690176E2,1.329943E4,5.6354613E4,1.9646051E2,2.6864658E3,8.461143E3,9.298057E3,1.5638456E3,2.3281308E2,5.6964996E2,2.0927794E2,3.4595647E3,8.53025E2,3.735829E3,1.6599233E3,1.1821189E4,4.120496E2,2.776709E4,8.758754E3,2.1258235E3,1.6520377E4,7.326448E3,5.192065E3,2.5438179E3,6.88264E3,8.101816E2,2.531773E3,1.0366031E3,7.051053E3,8.0349766E3,4.3240444E3,8.044255E2,3.1420747E3,2.2860156E4,2.296475E3,3.025614E3,2.323479E2,4.977545E3,5.557708E4,2.7415881E3,3.1217418E4,4.6218457E2,2.0527816E4,7.021451E3,1.0210955E4,4.7987573E3,5.8038037E3,5.3496437E1,1.4615866E2,1.7189568E2,1.8384819E2,8.1961875E3,4.538418E3,2.7891186E1,2.07696E4,8.312687E2,7.351389E2,1.7166711E3,6.414148E2,2.665969E3,1.38635E3,1.7459752E4,1.2133655E4],"tree_param":{"num_deleted":"0","num_feature":"70","num_nodes":"127","size_leaf_vector":"1"}},{"base_weights":[-2.7658587E-4,-5.575432E-1,5.4897135E-1,-8.660884E-1,-2.1746558E-1,7.411933E-2,9.4450706E-1,-9.4958246E-1,-7.296495E-2,-4.968946E-1,4.6799973E-1,7.389806E-1,-9.588426E-2,1.3692052E0,6.2746006E-1,-1.1106639E0,-6.2287277E-1,-6.953194E-1,9.2996694E-2,-9.4679606E-1,-3.2967708E-1,-5.514948E-2,7.8761184E-1,9.57123E-1,4.2930204E-1,-9.932311E-1,-1.48433065E-2,9.3150586E-1,1.5090272E0,6.7317003E-1,-1.0138345E0,-1.3427346E0,-9.958548E-1,-7.9122174E-1,-9.369121E-2,-8.780727E-1,-3.2109654E-1,-2.1311848E-1,3.3723035E-1,-1.1011462E0,-7.4734783E-1,-4.9309668E-1,3.0565409E-2,-8.362028E-1,6.0049307E-2,3.7884423E-1,1.0671024E0,4.348169E-1,1.0667046E0,-8.200168E-2,5.6136507E-1,-1.4549625E0,-8.7583476E-1,-1.7506365E-1,2.5922018E-1,-6.92759E-1,9.920398E-1,1.3691657E0,1.7689929E0,3.528471E-1,8.4684986E-1,-1.2075161E0,-2.9245502E-1,-6.780838E-2,-1.2191232E-2,-6.232674E-2,-4.5052864E-2,-6.531677E-2,-3.6520567E-2,-3.4245223E-2,2.859341E-3,-3.951579E-2,-7.424479E-2,-6.4806207E-3,-4.113176E-2,-5.7927123E-3,-4.5047563E-2,9.075931E-3,3.4476206E-2,-5.7432063E-2,-3.1939697E-2,-4.4553164E-2,-2.1816492E-2,-2.7055314E-2,2.1907365E-2,-3.739324E-2,5.8615785E-3,-8.036086E-2,-3.324617E-2,-3.9550513E-2,7.909378E-3,-2.5460375E-2,2.4036454E-2,4.1483335E-2,7.5409554E-2,-2.0500742E-2,2.7887462E-2,1.50929615E-2,5.53782E-2,-2.3205902E-2,9.574245E-3,2.2712767E-2,4.786421E-2,-7.7479206E-2,6.397006E-3,-8.5884444E-2,-4.0574953E-2,-2.1956502E-2,1.9188918E-3,9.982339E-3,4.231711E-2,-5.4774046E-2,-1.3737774E-2,3.9996907E-2,6.848111E-2,-4.7287787E-3,6.9874234E-2,8.325147E-2,9.330919E-2,4.571491E-2,9.975643E-3,-2.5607E-3,4.6293262E-2,-6.270882E-2,2.3241006E-2,-6.726398E-2,1.1313122E-2],"categories":[],"categories_nodes":[],"categories_segments":[],"categories_sizes":[],"default_left":[1,1,0,1,0,0,0,0,0,0,0,0,0,0,0,0,0,0,0,0,0,0,0,1,1,0,1,0,1,0,0,0,0,0,0,0,0,0,0,0,0,1,0,0,0,0,0,0,0,0,0,0,0,0,0,0,1,0,0,0,0,0,0,0,0,0,0,0,0,0,0,0,0,0,0,0,0,0,0,0,0,0,0,0,0,0,0,0,0,0,0,0,0,0,0,0,0,0,0,0,0,0,0,0,0,0,0,0,0,0,0,0,0,0,0,0,0,0,0,0,0,0,0,0,0,0,0],"id":1,"left_children":[1,3,5,7,9,11,13,15,17,19,21,23,25,27,29,31,33,35,37,39,41,43,45,47,49,51,53,55,57,59,61,63,65,67,69,71,73,75,77,79,81,83,85,87,89,91,93,95,97,99,101,103,105,107,109,111,113,115,117,119,121,123,125,-1,-1,-1,-1,-1,-1,-1,-1,-1,-1,-1,-1,-1,-1,-1,-1,-1,-1,-1,-1,-1,-1,-1,-1,-1,-1,-1,-1,-1,-1,-1,-1,-1,-1,-1,-1,-1,-1,-1,-1,-1,-1,-1,-1,-1,-1,-1,-1,-1,-1,-1,-1,-1,-1,-1,-1,-1,-1,-1,-1,-1,-1,-1,-1],"loss_changes":[1.5050612E5,2.5611062E4,4.651275E4,8.474461E3,2.2239605E4,1.2720297E4,1.8191031E4,6.0926562E3,1.2591305E3,6.205135E3,5.622328E3,1.5476973E3,6.5176157E3,3.5327734E3,5.8044023E3,2.0648281E3,3.406375E3,1.7523767E2,7.196375E2,6.872168E2,3.540253E3,1.1475248E3,2.3842734E3,7.6904004E2,6.397024E2,4.011294E2,3.6095562E3,1.3756182E3,1.5888438E3,4.186879E3,2.925603E2,3.785078E2,1.231875E3,9.077168E2,8.2333734E2,9.062219E1,8.091636E1,2.8568488E2,2.9356183E2,2.7589453E2,4.355791E2,1.8498018E3,1.2662152E3,2.1541113E2,9.284493E2,7.673048E2,1.2970166E3,2.4255283E2,3.4693848E2,2.0338799E2,3.1882886E2,2.2536572E2,3.1931104E2,2.9238594E3,1.0605736E3,8.437692E1,9.767949E2,1.1798594E3,1.5154688E2,2.2779707E3,3.4630703E3,1.2952295E2,2.4335767E2,0E0,0E0,0E0,0E0,0E0,0E0,0E0,0E0,0E0,0E0,0E0,0E0,0E0,0E0,0E0,0E0,0E0,0E0,0E0,0E0,0E0,0E0,0E0,0E0,0E0,0E0,0E0,0E0,0E0,0E0,0E0,0E0,0E0,0E0,0E0,0E0,0E0,0E0,0E0,0E0,0E0,0E0,0E0,0E0,0E0,0E0,0E0,0E0,0E0,0E0,0E0,0E0,0E0,0E0,0E0,0E0,0E0,0E0,0E0,0E0,0E0,0E0,0E0,0E0],"parents":[2147483647,0,0,1,1,2,2,3,3,4,4,5,5,6,6,7,7,8,8,9,9,10,10,11,11,12,12,13,13,14,14,15,15,16,16,17,17,18,18,19,19,20,20,21,21,22,22,23,23,24,24,25,25,26,26,27,27,28,28,29,29,30,30,31,31,32,32,33,33,34,34,35,35,36,36,37,37,38,38,39,39,40,40,41,41,42,42,43,43,44,44,45,45,46,46,47,47,48,48,49,49,50,50,51,51,52,52,53,53,54,54,55,55,56,56,57,57,58,58,59,59,60,60,61,61,62,62],"right_children":[2,4,6,8,10,12,14,16,18,20,22,24,26,28,30,32,34,36,38,40,42,44,46,48,50,52,54,56,58,60,62,64,66,68,70,72,74,76,78,80,82,84,86,88,90,92,94,96,98,100,102,104,106,108,110,112,114,116,118,120,122,124,126,-1,-1,-1,-1,-1,-1,-1,-1,-1,-1,-1,-1,-1,-1,-1,-1,-1,-1,-1,-1,-1,-1,-1,-1,-1,-1,-1,-1,-1,-1,-1,-1,-1,-1,-1,-1,-1,-1,-1,-1,-1,-1,-1,-1,-1,-1,-1,-1,-1,-1,-1,-1,-1,-1,-1,-1,-1,-1,-1,-1,-1,-1,-1,-1],"split_conditions":[1.73E0,1.75E0,1E0,-1E-5,1E0,5.4444447E0,4.67E0,1.3681803E-2,1.0660591E-2,6.4776517E-3,7.857264E-1,3E0,3.671758E-3,5E0,1E0,1.0660591E-2,1E0,4E0,1.75E-1,4.9944124E-3,6.921923E-2,4.6527395E-3,6.139128E-2,3.62E0,3.62E0,1.8709677E-1,2.46E0,5.422034E-3,3.3333334E-1,5E0,8.1162624E-2,4.8799723E-2,6.4776517E-3,6.0921283E-3,6.728326E-3,2.0202227E0,1E1,1.8903593E0,1E0,1.4348E-2,5.983195E-2,-1E-5,6.0921283E-3,2.9521296E-3,1.0416667E-3,1.0416667E-3,1.2733708E-2,2E0,3.8773147E-3,1.2515623E-2,6.597234E-2,1.2E1,1.0416667E-3,1.0660591E-2,1.5616906E-2,3.9612222E-3,-1E-5,2.0833334E-3,6.139128E-2,1.31E1,5.1299343E-3,6.374808E-2,1.3696837E-4,-6.780838E-2,-1.2191232E-2,-6.232674E-2,-4.5052864E-2,-6.531677E-2,-3.6520567E-2,-3.4245223E-2,2.859341E-3,-3.951579E-2,-7.424479E-2,-6.4806207E-3,-4.113176E-2,-5.7927123E-3,-4.5047563E-2,9.075931E-3,3.4476206E-2,-5.7432063E-2,-3.1939697E-2,-4.4553164E-2,-2.1816492E-2,-2.7055314E-2,2.1907365E-2,-3.739324E-2,5.8615785E-3,-8.036086E-2,-3.324617E-2,-3.9550513E-2,7.909378E-3,-2.5460375E-2,2.4036454E-2,4.1483335E-2,7.5409554E-2,-2.0500742E-2,2.7887462E-2,1.50929615E-2,5.53782E-2,-2.3205902E-2,9.574245E-3,2.2712767E-2,4.786421E-2,-7.7479206E-2,6.397006E-3,-8.5884444E-2,-4.0574953E-2,-2.1956502E-2,1.9188918E-3,9.982339E-3,4.231711E-2,-5.4774046E-2,-1.3737774E-2,3.9996907E-2,6.848111E-2,-4.7287787E-3,6.9874234E-2,8.325147E-2,9.330919E-2,4.571491E-2,9.975643E-3,-2.5607E-3,4.6293262E-2,-6.270882E-2,2.3241006E-2,-6.726398E-2,1.1313122E-2],"split_indices":[29,34,22,57,68,52,24,17,39,17,2,57,17,21,23,39,68,60,4,17,5,17,5,27,27,10,24,17,49,21,5,18,17,9,9,10,21,7,68,6,5,57,9,1,9,9,6,21,17,6,5,21,9,39,6,17,43,9,5,25,17,18,16,0,0,0,0,0,0,0,0,0,0,0,0,0,0,0,0,0,0,0,0,0,0,0,0,0,0,0,0,0,0,0,0,0,0,0,0,0,0,0,0,0,0,0,0,0,0,0,0,0,0,0,0,0,0,0,0,0,0,0,0,0,0,0,0],"split_type":[0,0,0,0,0,0,0,0,0,0,0,0,0,0,0,0,0,0,0,0,0,0,0,0,0,0,0,0,0,0,0,0,0,0,0,0,0,0,0,0,0,0,0,0,0,0,0,0,0,0,0,0,0,0,0,0,0,0,0,0,0,0,0,0,0,0,0,0,0,0,0,0,0,0,0,0,0,0,0,0,0,0,0,0,0,0,0,0,0,0,0,0,0,0,0,0,0,0,0,0,0,0,0,0,0,0,0,0,0,0,0,0,0,0,0,0,0,0,0,0,0,0,0,0,0,0,0],"sum_hessian":[4.9172347E5,2.4408002E5,2.4764345E5,1.279721E5,1.1610792E5,1.1253869E5,1.3510475E5,1.15783125E5,1.2188978E4,8.248379E4,3.362413E4,2.291558E4,8.962311E4,5.774693E4,7.735783E4,7.754691E4,3.8236223E4,2.5654346E3,9.623543E3,2.2348938E4,6.013485E4,1.2752062E4,2.0872068E4,1.3443605E4,9.471974E3,7.4226504E3,8.220046E4,1.3982802E4,4.376413E4,7.526237E4,2.0954607E3,2.5662662E4,5.1884242E4,2.9007535E4,9.228687E3,1.7227677E3,8.42667E2,4.27079E3,5.3527534E3,1.259631E4,9.752629E3,4.1368273E4,1.8766576E4,1.6382678E3,1.1113794E4,8.476767E3,1.2395302E4,2.3322456E3,1.111136E4,1.9443774E3,7.5275967E3,1.5023531E3,5.920297E3,5.187447E4,3.0325992E4,5.020196E2,1.3480782E4,2.8459291E4,1.5304838E4,2.6461557E4,4.8800805E4,1.6514048E3,4.4405594E2,2.535252E4,3.1014148E2,1.4233479E4,3.765076E4,3.0606694E3,2.5946865E4,1.8756077E3,7.353079E3,1.5071157E3,2.1565192E2,6.1074646E2,2.319205E2,3.7427131E3,5.2807666E2,3.7131006E3,1.6396527E3,1.1421551E4,1.1747595E3,6.6691016E3,3.083527E3,3.934052E4,2.0277537E3,1.8792892E3,1.6887287E4,2.9626172E2,1.3420061E3,1.1483333E3,9.965461E3,8.720223E2,7.6047446E3,8.059693E3,4.3356094E3,2.9596188E2,2.0362837E3,5.6391003E2,1.054745E4,8.1081165E2,1.1335658E3,5.9264385E3,1.6011581E3,1.417632E3,8.472113E1,4.1849213E2,5.5018047E3,2.3186924E4,2.8687545E4,2.7533588E4,2.7924043E3,2.5485808E2,2.4716153E2,8.937029E3,4.543753E3,5.401058E2,2.7919186E4,7.4035317E3,7.901306E3,5.675413E3,2.0786145E4,3.9465002E3,4.4854305E4,1.6068225E3,4.458229E1,1.4604318E2,2.9801276E2],"tree_param":{"num_deleted":"0","num_feature":"70","num_nodes":"127","size_leaf_vector":"1"}},{"base_weights":[-1.6718815E-4,-5.293126E-1,5.201501E-1,-8.25321E-1,-2.036052E-1,6.7928694E-2,8.965499E-1,-9.2646635E-1,-2.3720998E-1,-4.6943298E-1,4.453783E-1,7.033612E-1,-9.451813E-2,1.2981117E0,5.968611E-1,-1.0259824E0,-4.6396878E-1,-3.9677072E-1,4.237808E-1,-6.7955357E-1,-1.386854E-1,-4.6859916E-2,7.472326E-1,8.3E-1,1.7593376E-1,-9.609671E-1,-1.704728E-2,8.8356483E-1,1.4317204E0,6.403577E-1,-9.6791315E-1,-1.296713E0,-9.1517174E-1,-3.9883652E-1,-1.2385197E0,-5.504512E-1,7.376724E-2,-4.3579155E-1,5.1553017E-1,-1.0494255E0,-5.579617E-1,-2.886503E-1,2.4771774E-1,-8.064735E-1,6.5895766E-2,3.617463E-1,1.0112513E0,7.2963774E-1,1.1798848E0,-4.759486E-1,3.7897643E-1,-1.4068257E0,-8.494045E-1,2.3887385E-1,-1.7746875E-1,-6.460119E-1,9.407375E-1,1.296261E0,1.6830364E0,-5.104531E-1,6.8272567E-1,-1.1649786E0,-2.4295057E-1,-6.562196E-2,1.035994E-2,-6.1544158E-2,-4.1856278E-2,-3.197914E-2,-9.9182725E-3,-6.723688E-2,-4.198117E-2,-4.761291E-2,-1.9511461E-2,-2.8327096E-2,9.411359E-3,-3.9802436E-2,-4.2982423E-3,3.1498823E-2,-5.7566175E-3,-5.3965848E-2,-8.554109E-3,-3.3878535E-2,-1.44249E-2,2.0640139E-2,-1.8563064E-2,-2.1462757E-3,3.0772317E-2,-7.9416E-2,-3.1679656E-2,2.2233186E-2,-8.063328E-3,5.8305856E-2,1.2236349E-2,3.9213456E-2,7.1594216E-2,3.158896E-2,5.554962E-2,-3.2199822E-2,6.0121518E-2,-3.0724097E-2,1.1638342E-2,-2.0031251E-2,2.6319636E-2,-7.45629E-2,1.474999E-3,-7.961201E-2,-3.9402764E-2,1.2917652E-2,-6.648522E-2,-2.1952126E-2,1.5511508E-3,-5.2163836E-2,-1.1503116E-2,6.56517E-2,3.806037E-2,-6.7084855E-3,6.621586E-2,7.925361E-2,8.8690184E-2,-1.3424523E-2,-6.803514E-2,1.8913835E-2,4.2553768E-2,-7.427677E-2,-4.6366517E-2,-5.8083463E-2,1.3850696E-2],"categories":[],"categories_nodes":[],"categories_segments":[],"categories_sizes":[],"default_left":[1,1,0,1,0,0,0,0,0,0,0,0,0,0,0,0,0,0,0,0,0,0,0,0,0,0,0,0,1,0,0,0,0,0,0,0,0,0,0,0,0,0,0,0,0,0,0,0,0,1,0,0,0,0,0,0,0,0,0,0,0,0,0,0,0,0,0,0,0,0,0,0,0,0,0,0,0,0,0,0,0,0,0,0,0,0,0,0,0,0,0,0,0,0,0,0,0,0,0,0,0,0,0,0,0,0,0,0,0,0,0,0,0,0,0,0,0,0,0,0,0,0,0,0,0,0,0],"id":2,"left_children":[1,3,5,7,9,11,13,15,17,19,21,23,25,27,29,31,33,35,37,39,41,43,45,47,49,51,53,55,57,59,61,63,65,67,69,71,73,75,77,79,81,83,85,87,89,91,93,95,97,99,101,103,105,107,109,111,113,115,117,119,121,123,125,-1,-1,-1,-1,-1,-1,-1,-1,-1,-1,-1,-1,-1,-1,-1,-1,-1,-1,-1,-1,-1,-1,-1,-1,-1,-1,-1,-1,-1,-1,-1,-1,-1,-1,-1,-1,-1,-1,-1,-1,-1,-1,-1,-1,-1,-1,-1,-1,-1,-1,-1,-1,-1,-1,-1,-1,-1,-1,-1,-1,-1,-1,-1,-1],"loss_changes":[1.3514511E5,2.3463172E4,4.212742E4,7.5837734E3,1.999005E4,1.1605014E4,1.625407E4,5.006461E3,1.9735479E3,5.7126562E3,5.002955E3,1.5287168E3,6.0100635E3,3.1958672E3,5.2650996E3,2.684461E3,9.713657E2,1.0899915E3,2.8720538E2,2.2600938E3,1.8506377E3,1.0963802E3,2.1238555E3,6.472793E2,5.869459E2,3.6433008E2,3.3743203E3,1.2312217E3,1.4838672E3,3.6696797E3,2.9863586E2,6.151211E2,1.5642422E3,8.5758105E2,6.216455E1,7.3109717E2,2.7214E2,4.422901E1,2.3741815E2,3.263037E2,1.2191641E3,1.3333584E3,9.5439215E2,2.2262573E2,9.5913434E2,7.984481E2,1.1815322E3,5.3466895E2,1.698877E2,1.0355632E2,3.887536E2,1.78219E2,2.6672607E2,9.679669E2,2.7552288E3,8.364232E1,9.0570215E2,1.1386641E3,1.3310156E2,5.4951166E2,3.7199414E3,1.23927734E2,2.1454941E2,0E0,0E0,0E0,0E0,0E0,0E0,0E0,0E0,0E0,0E0,0E0,0E0,0E0,0E0,0E0,0E0,0E0,0E0,0E0,0E0,0E0,0E0,0E0,0E0,0E0,0E0,0E0,0E0,0E0,0E0,0E0,0E0,0E0,0E0,0E0,0E0,0E0,0E0,0E0,0E0,0E0,0E0,0E0,0E0,0E0,0E0,0E0,0E0,0E0,0E0,0E0,0E0,0E0,0E0,0E0,0E0,0E0,0E0,0E0,0E0,0E0,0E0,0E0,0E0],"parents":[2147483647,0,0,1,1,2,2,3,3,4,4,5,5,6,6,7,7,8,8,9,9,10,10,11,11,12,12,13,13,14,14,15,15,16,16,17,17,18,18,19,19,20,20,21,21,22,22,23,23,24,24,25,25,26,26,27,27,28,28,29,29,30,30,31,31,32,32,33,33,34,34,35,35,36,36,37,37,38,38,39,39,40,40,41,41,42,42,43,43,44,44,45,45,46,46,47,47,48,48,49,49,50,50,51,51,52,52,53,53,54,54,55,55,56,56,57,57,58,58,59,59,60,60,61,61,62,62],"right_children":[2,4,6,8,10,12,14,16,18,20,22,24,26,28,30,32,34,36,38,40,42,44,46,48,50,52,54,56,58,60,62,64,66,68,70,72,74,76,78,80,82,84,86,88,90,92,94,96,98,100,102,104,106,108,110,112,114,116,118,120,122,124,126,-1,-1,-1,-1,-1,-1,-1,-1,-1,-1,-1,-1,-1,-1,-1,-1,-1,-1,-1,-1,-1,-1,-1,-1,-1,-1,-1,-1,-1,-1,-1,-1,-1,-1,-1,-1,-1,-1,-1,-1,-1,-1,-1,-1,-1,-1,-1,-1,-1,-1,-1,-1,-1,-1,-1,-1,-1,-1,-1,-1,-1,-1,-1,-1],"split_conditions":[1.73E0,1.75E0,1E0,4.1538463E0,1E0,2.25E0,4.67E0,1.958385E-2,1.958385E-2,1.034378E-2,7.857264E-1,1.856E1,3.671758E-3,5E0,1E0,1.0660591E-2,1E0,9.677419E-2,1.3443177E-2,4.9944124E-3,8.1162624E-2,4.6527395E-3,6.139128E-2,6.627399E-2,1.0366664E0,1.8709677E-1,1.784E1,5.422034E-3,-1E-5,3.9612222E-3,8.1162624E-2,3.799283E-2,6.4776517E-3,6E0,8.1162624E-2,1.0660591E-2,9.826643E-3,1.1147498E-2,2.7068943E-2,1.2472058E-1,6.3785665E-2,5.5E0,1.7074136E-2,2.9521296E-3,9.714547E-3,6E0,1.2733708E-2,6.77781E-2,2.25E0,2.2E0,2E0,1.2E1,1.3368984E-3,1E0,1.0660591E-2,3.9612222E-3,4.09E2,3.1619312E-3,6.139128E-2,3.8024524E-1,5E0,6E0,1.4262385E-2,-6.562196E-2,1.035994E-2,-6.1544158E-2,-4.1856278E-2,-3.197914E-2,-9.9182725E-3,-6.723688E-2,-4.198117E-2,-4.761291E-2,-1.9511461E-2,-2.8327096E-2,9.411359E-3,-3.9802436E-2,-4.2982423E-3,3.1498823E-2,-5.7566175E-3,-5.3965848E-2,-8.554109E-3,-3.3878535E-2,-1.44249E-2,2.0640139E-2,-1.8563064E-2,-2.1462757E-3,3.0772317E-2,-7.9416E-2,-3.1679656E-2,2.2233186E-2,-8.063328E-3,5.8305856E-2,1.2236349E-2,3.9213456E-2,7.1594216E-2,3.158896E-2,5.554962E-2,-3.2199822E-2,6.0121518E-2,-3.0724097E-2,1.1638342E-2,-2.0031251E-2,2.6319636E-2,-7.45629E-2,1.474999E-3,-7.961201E-2,-3.9402764E-2,1.2917652E-2,-6.648522E-2,-2.1952126E-2,1.5511508E-3,-5.2163836E-2,-1.1503116E-2,6.56517E-2,3.806037E-2,-6.7084855E-3,6.621586E-2,7.925361E-2,8.8690184E-2,-1.3424523E-2,-6.803514E-2,1.8913835E-2,4.2553768E-2,-7.427677E-2,-4.6366517E-2,-5.8083463E-2,1.3850696E-2],"split_indices":[29,34,22,53,68,58,24,39,39,17,2,28,17,21,23,39,23,62,17,17,5,17,5,5,7,10,28,17,43,17,5,0,17,21,5,39,39,17,9,13,5,43,0,1,6,43,6,13,24,24,21,21,9,23,39,17,44,17,5,2,21,21,0,0,0,0,0,0,0,0,0,0,0,0,0,0,0,0,0,0,0,0,0,0,0,0,0,0,0,0,0,0,0,0,0,0,0,0,0,0,0,0,0,0,0,0,0,0,0,0,0,0,0,0,0,0,0,0,0,0,0,0,0,0,0,0,0],"split_type":[0,0,0,0,0,0,0,0,0,0,0,0,0,0,0,0,0,0,0,0,0,0,0,0,0,0,0,0,0,0,0,0,0,0,0,0,0,0,0,0,0,0,0,0,0,0,0,0,0,0,0,0,0,0,0,0,0,0,0,0,0,0,0,0,0,0,0,0,0,0,0,0,0,0,0,0,0,0,0,0,0,0,0,0,0,0,0,0,0,0,0,0,0,0,0,0,0,0,0,0,0,0,0,0,0,0,0,0,0,0,0,0,0,0,0,0,0,0,0,0,0,0,0,0,0,0,0],"sum_hessian":[4.9085725E5,2.4336406E5,2.4749319E5,1.27493914E5,1.1587016E5,1.1242389E5,1.350693E5,1.0878425E5,1.8709662E4,8.220056E4,3.3669594E4,2.2888629E4,8.953526E4,5.7722234E4,7.734706E4,8.9520766E4,1.9263482E4,1.5071788E4,3.6378748E3,5.0266016E4,3.1934543E4,1.2798972E4,2.0870623E4,1.8456523E4,4.4321055E3,7.3475415E3,8.218772E4,1.4071201E4,4.365103E4,7.525575E4,2.0913174E3,2.5996324E4,6.352444E4,1.7770656E4,1.4928259E3,1.1361036E4,3.7107517E3,3.5049005E2,3.2873848E3,1.2434305E4,3.783171E4,2.3006041E4,8.928502E3,1.6535005E3,1.1145471E4,8.484708E3,1.2385915E4,1.4344875E4,4.1116484E3,1.0522953E3,3.37981E3,1.4682175E3,5.8793237E3,3.1667662E4,5.052006E4,5.066331E2,1.3564567E4,2.8367242E4,1.5283791E4,2.6718267E3,7.258392E4,1.643862E3,4.4745535E2,2.5727426E4,2.688983E2,1.258817E4,5.0936273E4,8.073263E3,9.697394E3,1.1770347E3,3.157912E2,3.2373706E3,8.1236655E3,5.6213257E2,3.1486191E3,1.7204245E2,1.784476E2,2.782454E3,5.0493048E2,1.202485E4,4.0945535E2,2.6200412E4,1.1631299E4,2.4235527E3,2.0582488E4,4.9874404E3,3.9410615E3,2.9793066E2,1.3555698E3,4.178061E3,6.96741E3,1.0764448E3,7.4082637E3,8.0466436E3,4.3392715E3,1.141767E4,2.9272053E3,4.9868156E1,4.0617803E3,8.803461E2,1.7194917E2,5.3719116E2,2.842619E3,1.3866663E3,8.155132E1,4.466152E2,5.4327085E3,3.1280049E4,3.8761176E2,2.2407059E4,2.8113E4,2.5836545E2,2.4826762E2,4.4110146E3,9.153553E3,5.4561414E2,2.7821629E4,7.3593594E3,7.9244316E3,2.0809495E3,5.9087726E2,2.5846154E4,4.6737766E4,6.976166E2,9.462454E2,1.6127191E2,2.8618344E2],"tree_param":{"num_deleted":"0","num_feature":"70","num_nodes":"127","size_leaf_vector":"1"}},{"base_weights":[-5.3498114E-4,-5.047893E-1,4.938979E-1,-7.9032975E-1,-1.9223152E-1,2.5814986E-1,1.0722598E0,-8.68452E-1,-5.170713E-2,-4.4685176E-1,4.2767853E-1,5.717746E-1,-3.668213E-2,7.425663E-1,1.410445E0,-1.018608E0,-5.650175E-1,-3.3298805E-1,2.1611248E-1,-8.5779727E-1,-2.958354E-1,-4.089089E-2,7.147894E-1,4.215778E-1,1.1357694E0,-4.648643E-1,1.5001902E-1,9.4362944E-2,8.977078E-1,-3.3386338E-1,1.4502711E0,-1.110467E0,-7.878705E-1,-7.224252E-1,-7.2785266E-2,-9.6200675E-1,-2.4256116E-1,7.27855E-2,6.284869E-1,-9.1405976E-1,-3.9094433E-1,-4.4735694E-1,3.732255E-2,-1.0274341E0,3.999799E-2,3.5542285E-1,9.664786E-1,1.9830628E-1,8.066698E-1,9.649767E-1,1.4079461E0,-7.05137E-1,-2.321159E-1,1.8388358E-1,-1.2002175E0,-8.3682936E-1,2.4283093E-1,6.925545E-1,1.1788943E0,4.3184537E-1,-9.474015E-1,1.2575055E0,1.5690268E0,-6.392336E-2,-5.156548E-2,-5.4244854E-2,-3.155639E-2,-5.350488E-2,-3.1742387E-2,-3.1246994E-2,3.2324314E-3,-6.930664E-2,-4.439166E-2,-2.0643508E-2,3.8907547E-3,-6.0637924E-3,2.2253744E-2,5.562833E-3,3.837653E-2,-5.9969753E-2,-4.1321944E-2,-2.5301432E-2,6.1993178E-2,8.487041E-3,-2.5347868E-2,-3.4217533E-2,5.8900467E-3,-3.3761773E-2,-6.577213E-2,1.9476574E-2,-8.481247E-3,5.3823587E-2,1.23568205E-2,3.7499245E-2,6.7909226E-2,-3.254812E-2,1.3974199E-2,-6.026826E-2,4.1793052E-2,8.049505E-3,5.0505336E-2,6.385886E-2,8.07436E-2,-2.5574625E-2,-4.5855064E-2,3.476311E-2,-1.4996819E-2,-3.0092368E-4,2.065438E-2,-6.990517E-2,-1.9930536E-2,-6.624221E-2,-2.3838846E-2,3.2630526E-2,-2.3847744E-3,3.66255E-2,-2.9839218E-2,-4.6899334E-2,5.9931017E-2,-1.7998738E-2,3.1526506E-2,-5.3282168E-2,2.2000242E-2,7.676141E-2,5.5130012E-2,7.4307285E-2,8.610052E-2],"categories":[],"categories_nodes":[],"categories_segments":[],"categories_sizes":[],"default_left":[1,1,0,1,0,0,1,0,0,0,0,1,0,0,0,0,0,0,0,0,0,0,0,0,0,0,0,0,0,0,0,0,0,0,0,0,0,0,0,0,0,0,0,0,0,0,0,0,0,0,0,0,0,0,0,0,0,0,0,0,0,0,1,0,0,0,0,0,0,0,0,0,0,0,0,0,0,0,0,0,0,0,0,0,0,0,0,0,0,0,0,0,0,0,0,0,0,0,0,0,0,0,0,0,0,0,0,0,0,0,0,0,0,0,0,0,0,0,0,0,0,0,0,0,0,0,0],"id":3,"left_children":[1,3,5,7,9,11,13,15,17,19,21,23,25,27,29,31,33,35,37,39,41,43,45,47,49,51,53,55,57,59,61,63,65,67,69,71,73,75,77,79,81,83,85,87,89,91,93,95,97,99,101,103,105,107,109,111,113,115,117,119,121,123,125,-1,-1,-1,-1,-1,-1,-1,-1,-1,-1,-1,-1,-1,-1,-1,-1,-1,-1,-1,-1,-1,-1,-1,-1,-1,-1,-1,-1,-1,-1,-1,-1,-1,-1,-1,-1,-1,-1,-1,-1,-1,-1,-1,-1,-1,-1,-1,-1,-1,-1,-1,-1,-1,-1,-1,-1,-1,-1,-1,-1,-1,-1,-1,-1],"loss_changes":[1.2218855E5,2.1654402E4,3.3739445E4,7.3165E3,1.8284271E4,1.6255449E4,7.9885E3,5.2240156E3,9.13801E2,5.09559E3,4.5373535E3,7.2154863E3,7.2439995E3,3.6489531E3,2.4577188E3,1.6249688E3,2.9412812E3,3.3629022E2,3.6722406E2,5.7922266E2,3.0312607E3,1.0226857E3,1.8911963E3,5.783825E3,8.3138477E2,1.5385151E3,2.8855464E3,9.691649E2,1.6881465E3,3.7172925E2,7.896875E2,7.282656E2,1.01638477E3,8.75125E2,6.981261E2,2.2152344E1,2.8234448E2,3.3328235E2,1.1516748E2,4.9132617E2,4.463602E2,1.5181699E3,1.0904087E3,9.7621216E1,8.679436E2,6.724248E2,1.0419092E3,2.935979E3,1.4510537E3,3.9932715E2,1.8477637E2,5.551987E2,8.793218E2,2.679416E3,2.4436646E2,1.6875537E2,7.197754E2,8.726201E2,5.167949E2,5.5648903E1,7.250488E1,5.656738E2,2.6871875E2,0E0,0E0,0E0,0E0,0E0,0E0,0E0,0E0,0E0,0E0,0E0,0E0,0E0,0E0,0E0,0E0,0E0,0E0,0E0,0E0,0E0,0E0,0E0,0E0,0E0,0E0,0E0,0E0,0E0,0E0,0E0,0E0,0E0,0E0,0E0,0E0,0E0,0E0,0E0,0E0,0E0,0E0,0E0,0E0,0E0,0E0,0E0,0E0,0E0,0E0,0E0,0E0,0E0,0E0,0E0,0E0,0E0,0E0,0E0,0E0,0E0,0E0,0E0,0E0],"parents":[2147483647,0,0,1,1,2,2,3,3,4,4,5,5,6,6,7,7,8,8,9,9,10,10,11,11,12,12,13,13,14,14,15,15,16,16,17,17,18,18,19,19,20,20,21,21,22,22,23,23,24,24,25,25,26,26,27,27,28,28,29,29,30,30,31,31,32,32,33,33,34,34,35,35,36,36,37,37,38,38,39,39,40,40,41,41,42,42,43,43,44,44,45,45,46,46,47,47,48,48,49,49,50,50,51,51,52,52,53,53,54,54,55,55,56,56,57,57,58,58,59,59,60,60,61,61,62,62],"right_children":[2,4,6,8,10,12,14,16,18,20,22,24,26,28,30,32,34,36,38,40,42,44,46,48,50,52,54,56,58,60,62,64,66,68,70,72,74,76,78,80,82,84,86,88,90,92,94,96,98,100,102,104,106,108,110,112,114,116,118,120,122,124,126,-1,-1,-1,-1,-1,-1,-1,-1,-1,-1,-1,-1,-1,-1,-1,-1,-1,-1,-1,-1,-1,-1,-1,-1,-1,-1,-1,-1,-1,-1,-1,-1,-1,-1,-1,-1,-1,-1,-1,-1,-1,-1,-1,-1,-1,-1,-1,-1,-1,-1,-1,-1,-1,-1,-1,-1,-1,-1,-1,-1,-1,-1,-1,-1],"split_conditions":[1.73E0,1.75E0,1E0,-1E-5,1E0,1.74E1,-1E-5,1.3681803E-2,1.75E-1,6.4776517E-3,7.857264E-1,-1E-5,6.875431E-3,6.4776517E-3,3.1619312E-3,1E0,1E0,5.1299343E-3,1E0,1.4348E-2,6.921923E-2,3.8200982E-3,6.155279E-2,1E0,1E0,4.9944124E-3,1E0,2.752365E-1,1.5625E-1,4.49E0,8.3782107E-1,9.283956E-3,6.4776517E-3,1.035173E-2,6.4832387E-3,2.9429892E-2,9.677419E-2,1.0526316E-1,5.6711077E-3,3.671758E-3,1.7311E2,1.096E3,6.0921283E-3,1.7073303E-1,9.714547E-3,8.666667E0,1.2733708E-2,3.8200982E-3,3.5399762E-3,3.8773147E-3,7.165321E-2,6.048387E-3,2.3E0,1.6519235E-2,1.0090836E-1,3.8200982E-3,7.8E0,2E0,2.0833334E-3,4.5425892E-2,2.1350643E-2,4.3333335E0,3.5925925E-1,-6.392336E-2,-5.156548E-2,-5.4244854E-2,-3.155639E-2,-5.350488E-2,-3.1742387E-2,-3.1246994E-2,3.2324314E-3,-6.930664E-2,-4.439166E-2,-2.0643508E-2,3.8907547E-3,-6.0637924E-3,2.2253744E-2,5.562833E-3,3.837653E-2,-5.9969753E-2,-4.1321944E-2,-2.5301432E-2,6.1993178E-2,8.487041E-3,-2.5347868E-2,-3.4217533E-2,5.8900467E-3,-3.3761773E-2,-6.577213E-2,1.9476574E-2,-8.481247E-3,5.3823587E-2,1.23568205E-2,3.7499245E-2,6.7909226E-2,-3.254812E-2,1.3974199E-2,-6.026826E-2,4.1793052E-2,8.049505E-3,5.0505336E-2,6.385886E-2,8.07436E-2,-2.5574625E-2,-4.5855064E-2,3.476311E-2,-1.4996819E-2,-3.0092368E-4,2.065438E-2,-6.990517E-2,-1.9930536E-2,-6.624221E-2,-2.3838846E-2,3.2630526E-2,-2.3847744E-3,3.66255E-2,-2.9839218E-2,-4.6899334E-2,5.9931017E-2,-1.7998738E-2,3.1526506E-2,-5.3282168E-2,2.2000242E-2,7.676141E-2,5.5130012E-2,7.4307285E-2,8.610052E-2],"split_indices":[29,34,68,57,68,25,25,17,4,17,2,57,17,17,17,68,68,17,68,6,5,17,5,67,67,17,23,10,4,34,19,40,17,1,9,5,62,62,9,17,37,47,9,10,6,53,6,17,9,17,5,9,30,40,5,17,30,23,9,5,18,43,48,0,0,0,0,0,0,0,0,0,0,0,0,0,0,0,0,0,0,0,0,0,0,0,0,0,0,0,0,0,0,0,0,0,0,0,0,0,0,0,0,0,0,0,0,0,0,0,0,0,0,0,0,0,0,0,0,0,0,0,0,0,0,0,0],"split_type":[0,0,0,0,0,0,0,0,0,0,0,0,0,0,0,0,0,0,0,0,0,0,0,0,0,0,0,0,0,0,0,0,0,0,0,0,0,0,0,0,0,0,0,0,0,0,0,0,0,0,0,0,0,0,0,0,0,0,0,0,0,0,0,0,0,0,0,0,0,0,0,0,0,0,0,0,0,0,0,0,0,0,0,0,0,0,0,0,0,0,0,0,0,0,0,0,0,0,0,0,0,0,0,0,0,0,0,0,0,0,0,0,0,0,0,0,0,0,0,0,0,0,0,0,0,0,0],"sum_hessian":[4.900854E5,2.4263288E5,2.4745255E5,1.2679575E5,1.15837125E5,1.7579684E5,7.16557E4,1.1466748E5,1.2128273E4,8.211124E4,3.372588E4,8.518315E4,9.0613695E4,3.6285E4,3.53707E4,7.670653E4,3.7960945E4,5.9153545E3,6.212919E3,2.2064547E4,6.0046695E4,1.2814033E4,2.0911846E4,6.727024E4,1.7912908E4,2.7513193E4,6.3100504E4,7.00765E3,2.9277352E4,7.893934E2,3.458131E4,5.4861703E4,2.1844826E4,2.876266E4,9.198286E3,7.422876E2,5.173067E3,4.6113506E3,1.6015684E3,1.969059E4,2.373957E3,4.1274535E4,1.877216E4,9.701472E2,1.1843887E4,8.614424E3,1.2297422E4,4.2582785E4,2.4687455E4,1.1009147E4,6.9037607E3,1.3536773E4,1.3976419E4,6.155748E4,1.543026E3,9.630097E2,6.04464E3,1.6929248E4,1.2348103E4,3.5128204E2,4.3811136E2,1.318723E4,2.1394076E4,1.7565756E4,3.729595E4,7.543681E3,1.43011455E4,5.785135E3,2.2977525E4,1.832497E3,7.365789E3,1.0785915E2,6.3442847E2,3.37739E3,1.7956771E3,3.0317043E3,1.5796464E3,3.3970316E2,1.2618652E3,4.6230474E3,1.5067543E4,2.2181167E3,1.5584032E2,3.6351045E3,3.763943E4,1.882623E3,1.6889537E4,4.3794244E2,5.322048E2,4.4398496E3,7.4040366E3,1.1236193E3,7.490805E3,7.9219297E3,4.3754927E3,3.7145637E3,3.886822E4,3.524747E2,2.433498E4,5.853706E2,1.0423776E4,4.2347456E3,2.6690156E3,7.075871E3,6.460903E3,9.5183057E2,1.3024589E4,3.366557E4,2.7891908E4,1.236931E3,3.0609497E2,4.077144E2,5.5529535E2,2.5071409E3,3.5374995E3,1.6420812E4,5.0843573E2,1.1357289E2,1.2234529E4,7.030061E1,2.8098145E2,4.0391922E2,3.4192127E1,4.7185845E3,8.4686455E3,1.3883303E4,7.510774E3],"tree_param":{"num_deleted":"0","num_feature":"70","num_nodes":"127","size_leaf_vector":"1"}},{"base_weights":[-6.9334975E-4,-4.823256E-1,4.7057316E-1,-7.4785817E-1,-1.7647119E-1,6.2242147E-2,8.1124616E-1,-8.2249576E-1,-3.8596667E-2,-4.1907382E-1,4.0009946E-1,6.423688E-1,-8.643776E-2,1.1783655E0,5.3931016E-1,-9.1804814E-1,-3.7207812E-1,-5.796663E-1,1.06509045E-1,-5.250167E-1,1.264265E-1,-4.6379644E-2,6.7897946E-1,7.645162E-1,1.8824247E-1,-5.4783547E-1,1.7897904E-2,-6.6417605E-1,1.2081325E0,5.7906514E-1,-9.320653E-1,-1.1806488E0,-8.0888474E-1,-3.1016386E-1,-1.1648299E0,-4.9281308E-1,-1.2265445E0,2.3849155E-1,-4.2254573E-1,-7.808891E-1,-3.8312116E-1,1.7497785E-1,-1.320093E0,1.3868386E-1,-5.650212E-1,-1.06135376E-1,7.6777E-1,9.387176E-1,5.061605E-1,-1.5505698E-1,4.6717197E-1,6.93007E-2,-6.840828E-1,5.116098E-2,-1.2010808E0,-8.313752E-1,3.9249635E-1,8.127197E-1,1.3355104E0,-8.3825415E-1,6.156841E-1,-1.1770319E0,-5.3580326E-1,-5.967277E-2,7.5431676E-3,-3.5945084E-2,-5.7163138E-2,-2.743417E-2,-5.706195E-3,-5.877256E-2,5.5403676E-2,-8.717525E-3,-3.261657E-2,-6.771614E-2,-2.1655561E-2,-1.6612103E-2,1.6309863E-2,-3.5734195E-2,3.9487747E-3,-4.2277027E-2,-1.3614765E-2,-1.3655635E-2,-4.184857E-2,-1.2246373E-2,1.5292744E-2,-7.086083E-2,-9.175852E-4,-2.1611234E-2,1.7476818E-2,-3.8884614E-2,-9.717041E-3,-3.2468174E-2,1.3002008E-2,2.9463008E-2,5.2764405E-2,-1.5222765E-2,4.810844E-2,2.0694872E-2,4.868715E-2,1.3197432E-2,-2.5206719E-2,1.0281614E-2,3.7718084E-2,-6.276209E-2,1.04751205E-2,-7.1437016E-2,-3.0734628E-2,-4.5035235E-3,1.398954E-2,4.6715024E-3,-6.257006E-2,-2.6834551E-2,-5.94531E-2,4.8440363E-2,-1.7660316E-2,-2.020081E-2,4.3134842E-2,6.729626E-2,-5.1424008E-2,-6.8032615E-2,-1.4397362E-2,2.3478132E-2,4.5311436E-2,-6.0680933E-2,-2.0352562E-3,-4.830582E-2,-8.071446E-3],"categories":[],"categories_nodes":[],"categories_segments":[],"categories_sizes":[],"default_left":[1,1,0,1,0,0,0,0,0,0,0,0,0,0,0,0,0,0,0,0,0,0,0,0,0,0,0,0,0,0,0,0,0,0,0,0,0,0,0,0,0,0,0,0,0,0,0,0,0,0,0,0,0,1,0,0,0,0,0,0,0,0,0,0,0,0,0,0,0,0,0,0,0,0,0,0,0,0,0,0,0,0,0,0,0,0,0,0,0,0,0,0,0,0,0,0,0,0,0,0,0,0,0,0,0,0,0,0,0,0,0,0,0,0,0,0,0,0,0,0,0,0,0,0,0,0,0],"id":4,"left_children":[1,3,5,7,9,11,13,15,17,19,21,23,25,27,29,31,33,35,37,39,41,43,45,47,49,51,53,55,57,59,61,63,65,67,69,71,73,75,77,79,81,83,85,87,89,91,93,95,97,99,101,103,105,107,109,111,113,115,117,119,121,123,125,-1,-1,-1,-1,-1,-1,-1,-1,-1,-1,-1,-1,-1,-1,-1,-1,-1,-1,-1,-1,-1,-1,-1,-1,-1,-1,-1,-1,-1,-1,-1,-1,-1,-1,-1,-1,-1,-1,-1,-1,-1,-1,-1,-1,-1,-1,-1,-1,-1,-1,-1,-1,-1,-1,-1,-1,-1,-1,-1,-1,-1,-1,-1,-1],"loss_changes":[1.1087763E5,1.9620555E4,3.434631E4,6.8458438E3,1.5704596E4,9.6864795E3,1.3437297E4,5.035453E3,9.668636E2,4.566953E3,4.1402085E3,1.2706982E3,4.3034067E3,3.1422812E3,4.5238145E3,2.7661719E3,1.0048262E3,1.4570886E2,6.781678E2,2.402211E3,9.028443E2,1.2271915E3,1.4268379E3,8.120576E2,4.652E2,1.3862739E3,2.9562432E3,1.613245E2,2.8379297E3,3.9083516E3,1.9688379E2,4.8346484E2,2.0508242E3,8.882378E2,3.7109375E1,1.1660632E2,3.0598297E1,3.8917792E2,2.8417813E2,7.75916E2,2.1250972E3,6.834894E2,5.2756165E1,1.1345232E3,2.6491858E2,4.1398492E2,9.4311035E2,3.146289E2,3.133546E2,3.187289E2,2.01159E2,5.541081E2,6.969487E2,2.291688E3,1.2627222E2,8.23255E1,5.4135796E1,8.3563965E2,1.0509922E3,5.4489685E2,3.1156992E3,5.2192505E1,1.253656E2,0E0,0E0,0E0,0E0,0E0,0E0,0E0,0E0,0E0,0E0,0E0,0E0,0E0,0E0,0E0,0E0,0E0,0E0,0E0,0E0,0E0,0E0,0E0,0E0,0E0,0E0,0E0,0E0,0E0,0E0,0E0,0E0,0E0,0E0,0E0,0E0,0E0,0E0,0E0,0E0,0E0,0E0,0E0,0E0,0E0,0E0,0E0,0E0,0E0,0E0,0E0,0E0,0E0,0E0,0E0,0E0,0E0,0E0,0E0,0E0,0E0,0E0,0E0,0E0],"parents":[2147483647,0,0,1,1,2,2,3,3,4,4,5,5,6,6,7,7,8,8,9,9,10,10,11,11,12,12,13,13,14,14,15,15,16,16,17,17,18,18,19,19,20,20,21,21,22,22,23,23,24,24,25,25,26,26,27,27,28,28,29,29,30,30,31,31,32,32,33,33,34,34,35,35,36,36,37,37,38,38,39,39,40,40,41,41,42,42,43,43,44,44,45,45,46,46,47,47,48,48,49,49,50,50,51,51,52,52,53,53,54,54,55,55,56,56,57,57,58,58,59,59,60,60,61,61,62,62],"right_children":[2,4,6,8,10,12,14,16,18,20,22,24,26,28,30,32,34,36,38,40,42,44,46,48,50,52,54,56,58,60,62,64,66,68,70,72,74,76,78,80,82,84,86,88,90,92,94,96,98,100,102,104,106,108,110,112,114,116,118,120,122,124,126,-1,-1,-1,-1,-1,-1,-1,-1,-1,-1,-1,-1,-1,-1,-1,-1,-1,-1,-1,-1,-1,-1,-1,-1,-1,-1,-1,-1,-1,-1,-1,-1,-1,-1,-1,-1,-1,-1,-1,-1,-1,-1,-1,-1,-1,-1,-1,-1,-1,-1,-1,-1,-1,-1,-1,-1,-1,-1,-1,-1,-1,-1,-1,-1],"split_conditions":[1.73E0,2.2E0,1E0,-1E-5,1E0,6E0,4.67E0,1.958385E-2,1.0660591E-2,1.6888132E-2,7.857264E-1,1.78E1,3.632615E-1,5.495816E-1,1E0,1.0660591E-2,3.5E0,2.0202227E0,1.7764027E0,1.0660591E-2,2E0,1.682495E0,1.0416667E-3,3E0,1.0660591E-2,4.8E0,1E0,2.2784155E-2,5E0,5.7489425E-1,1.958385E-2,3.799283E-2,1.7764027E0,6E0,2.8125E-1,2E0,9.79375E0,1.0201254E0,4.4113774E-2,4.831E1,1.7764027E0,1.3336395E-2,5.163E1,4.5576736E-1,1.592E1,3.765E1,1.841315E-2,2.0191385E-1,6.921923E-2,7.6E0,1.0575148E0,1.4880953E-3,1.4880953E-3,2.25E0,3.03E0,1.935E1,3.32E0,4.146806E-1,1E0,5.495816E-1,1.958385E-2,2.8125E-1,6E0,-5.967277E-2,7.5431676E-3,-3.5945084E-2,-5.7163138E-2,-2.743417E-2,-5.706195E-3,-5.877256E-2,5.5403676E-2,-8.717525E-3,-3.261657E-2,-6.771614E-2,-2.1655561E-2,-1.6612103E-2,1.6309863E-2,-3.5734195E-2,3.9487747E-3,-4.2277027E-2,-1.3614765E-2,-1.3655635E-2,-4.184857E-2,-1.2246373E-2,1.5292744E-2,-7.086083E-2,-9.175852E-4,-2.1611234E-2,1.7476818E-2,-3.8884614E-2,-9.717041E-3,-3.2468174E-2,1.3002008E-2,2.9463008E-2,5.2764405E-2,-1.5222765E-2,4.810844E-2,2.0694872E-2,4.868715E-2,1.3197432E-2,-2.5206719E-2,1.0281614E-2,3.7718084E-2,-6.276209E-2,1.04751205E-2,-7.1437016E-2,-3.0734628E-2,-4.5035235E-3,1.398954E-2,4.6715024E-3,-6.257006E-2,-2.6834551E-2,-5.94531E-2,4.8440363E-2,-1.7660316E-2,-2.020081E-2,4.3134842E-2,6.729626E-2,-5.1424008E-2,-6.8032615E-2,-1.4397362E-2,2.3478132E-2,4.5311436E-2,-6.0680933E-2,-2.0352562E-3,-4.830582E-2,-8.071446E-3],"split_indices":[29,24,22,57,68,52,24,39,39,0,2,28,10,15,23,39,23,10,15,39,23,15,9,57,39,30,23,0,21,15,39,0,15,21,3,21,12,15,18,36,15,9,26,10,28,26,0,10,13,35,15,9,9,24,24,32,24,2,23,15,39,3,21,0,0,0,0,0,0,0,0,0,0,0,0,0,0,0,0,0,0,0,0,0,0,0,0,0,0,0,0,0,0,0,0,0,0,0,0,0,0,0,0,0,0,0,0,0,0,0,0,0,0,0,0,0,0,0,0,0,0,0,0,0,0,0,0],"split_type":[0,0,0,0,0,0,0,0,0,0,0,0,0,0,0,0,0,0,0,0,0,0,0,0,0,0,0,0,0,0,0,0,0,0,0,0,0,0,0,0,0,0,0,0,0,0,0,0,0,0,0,0,0,0,0,0,0,0,0,0,0,0,0,0,0,0,0,0,0,0,0,0,0,0,0,0,0,0,0,0,0,0,0,0,0,0,0,0,0,0,0,0,0,0,0,0,0,0,0,0,0,0,0,0,0,0,0,0,0,0,0,0,0,0,0,0,0,0,0,0,0,0,0,0,0,0,0],"sum_hessian":[4.884949E5,2.4159048E5,2.4690442E5,1.29318805E5,1.1227167E5,1.1230123E5,1.3460319E5,1.1700579E5,1.2313018E4,7.9022E4,3.3249676E4,2.2909291E4,8.939194E4,5.727602E4,7.732717E4,9.652729E4,2.0478496E4,2.603204E3,9.709813E3,6.617084E4,1.2851158E4,1.2783877E4,2.04658E4,1.8052883E4,4.8564077E3,1.648537E4,7.290656E4,9.1026904E2,5.636575E4,7.529343E4,2.033742E3,2.8341023E4,6.8186266E4,1.8996271E4,1.4822255E3,2.2966108E3,3.0659323E2,7.7715947E3,1.9382189E3,2.3603488E4,4.256735E4,1.2434677E4,4.1648166E2,9.422456E3,3.3614211E3,2.0793472E3,1.8386453E4,1.0780969E4,7.271915E3,2.1772039E3,2.6792039E3,2.9814229E3,1.3503946E4,7.097089E4,1.9356715E3,7.8609674E2,1.24172264E2,1.3735306E4,4.2630445E4,1.8957925E3,7.339764E4,1.2555803E3,7.781616E2,2.8071137E4,2.6988577E2,5.3730277E4,1.4455988E4,8.568851E3,1.042742E4,1.4758119E3,6.4136443E0,7.671549E2,1.529456E3,2.634579E2,4.3135365E1,1.0348236E3,6.736771E3,1.2245111E3,7.137077E2,2.0940865E4,2.662623E3,3.4263777E4,8.303573E3,2.9545237E3,9.480153E3,3.8748267E2,2.899899E1,2.5410923E3,6.8813633E3,2.135258E3,1.2261631E3,8.369473E2,1.2423999E3,1.1345488E4,7.0409644E3,1.9938449E2,1.0581584E4,6.075072E3,1.1968434E3,9.8960364E2,1.1876002E3,1.4031188E3,1.2760852E3,2.846132E2,2.6968098E3,1.1494199E3,1.2354526E4,4.3871047E4,2.7099848E4,7.239615E1,1.8632753E3,4.3237793E2,3.5371884E2,6.987257E1,5.4299694E1,5.4163574E2,1.319367E4,4.2443887E4,1.8655928E2,9.718024E2,9.2399005E2,4.883834E4,2.4559299E4,1.216349E3,3.9231297E1,3.61298E2,4.1686362E2],"tree_param":{"num_deleted":"0","num_feature":"70","num_nodes":"127","size_leaf_vector":"1"}},{"base_weights":[6.2382926E-5,-4.5930606E-1,4.4835547E-1,-7.213302E-1,-1.7556445E-1,6.069116E-2,7.722687E-1,-8.144866E-1,-1.8752202E-1,-4.0716714E-1,3.8682005E-1,6.1285096E-1,-8.079042E-2,1.105355E0,4.92284E-1,-9.5067513E-1,-5.389792E-1,-3.3170542E-1,4.0577567E-1,-5.916681E-1,-1.15740545E-1,1.17337175E-1,8.0097246E-1,7.9857224E-1,3.479601E-1,-8.620723E-1,-1.2103896E-2,-6.5116584E-1,1.1339248E0,5.285084E-1,-8.443181E-1,-1.1540633E0,-8.5328025E-1,-6.8031853E-1,-1.062177E-1,-1.6681512E-1,-7.9178023E-1,-7.3472387E-1,4.603984E-1,-9.312022E-1,-4.8059055E-1,-7.708969E-2,-1.4278923E0,-3.6472857E-2,6.473706E-1,-4.9747628E-1,8.7742335E-1,3.7979093E-1,8.874119E-1,-1.0347775E-1,4.6462697E-1,-8.9775026E-1,2.5348163E-1,-1.2029449E0,1.5773773E-2,-3.0463985E-1,-1.080171E0,7.8030914E-1,1.2722902E0,2.1152765E-1,6.8382794E-1,-1.0026994E0,-2.6536235E-1,-5.8420654E-2,-5.3395485E-3,-3.852279E-2,-5.6792516E-2,-2.8431186E-2,-4.9205154E-2,7.7676834E-3,-2.5515309E-2,-2.9447174E-2,-5.7673216E-4,-4.459367E-2,-2.1567924E-2,-7.984761E-4,-4.7166854E-2,3.075412E-2,5.7751513E-3,-4.8379857E-2,-1.1995347E-2,-1.8263832E-2,-4.2386964E-2,-1.0696557E-2,1.3704595E-2,-7.26364E-2,1.6861977E-2,7.1080136E-3,-2.650638E-2,-1.1856183E-2,3.679924E-2,-5.6067258E-2,-1.088625E-2,3.5060573E-2,6.379717E-2,4.367744E-3,3.4515973E-2,7.7229976E-3,4.6325218E-2,-2.0043442E-2,1.0613622E-2,1.8197114E-2,3.9208066E-2,-1.7442292E-2,-4.8619904E-2,2.4790442E-2,-6.3252956E-2,-3.3579428E-2,-7.1842946E-2,-9.179032E-3,8.804362E-3,-3.6176007E-2,1.1924091E-2,-6.733335E-2,-3.9163794E-2,5.7116657E-2,2.9899983E-2,6.422678E-2,-4.1343726E-2,-2.560232E-2,1.4869871E-2,-4.333539E-3,3.760305E-2,-5.1922794E-2,6.4482376E-2,-5.1830556E-2,1.6190005E-2],"categories":[],"categories_nodes":[],"categories_segments":[],"categories_sizes":[],"default_left":[1,1,0,1,0,0,0,0,0,0,0,0,0,0,0,0,0,0,0,0,0,0,0,1,1,0,0,0,0,0,0,0,0,0,0,0,0,0,0,0,0,0,0,0,0,0,0,0,0,0,0,0,0,0,0,0,0,0,0,0,0,0,0,0,0,0,0,0,0,0,0,0,0,0,0,0,0,0,0,0,0,0,0,0,0,0,0,0,0,0,0,0,0,0,0,0,0,0,0,0,0,0,0,0,0,0,0,0,0,0,0,0,0,0,0,0,0,0,0,0,0,0,0,0,0,0,0],"id":5,"left_children":[1,3,5,7,9,11,13,15,17,19,21,23,25,27,29,31,33,35,37,39,41,43,45,47,49,51,53,55,57,59,61,63,65,67,69,71,73,75,77,79,81,83,85,87,89,91,93,95,97,99,101,103,105,107,109,111,113,115,117,119,121,123,125,-1,-1,-1,-1,-1,-1,-1,-1,-1,-1,-1,-1,-1,-1,-1,-1,-1,-1,-1,-1,-1,-1,-1,-1,-1,-1,-1,-1,-1,-1,-1,-1,-1,-1,-1,-1,-1,-1,-1,-1,-1,-1,-1,-1,-1,-1,-1,-1,-1,-1,-1,-1,-1,-1,-1,-1,-1,-1,-1,-1,-1,-1,-1,-1],"loss_changes":[1.0032866E5,1.7889629E4,3.096157E4,6.220746E3,1.5047399E4,8.76833E3,1.252693E4,3.9959062E3,1.5903042E3,4.399706E3,3.7609463E3,1.126E3,4.7947085E3,3.0793203E3,3.53417E3,1.4109219E3,2.1551914E3,1.1344E3,2.2677258E2,1.8892773E3,1.6087578E3,1.6644523E3,1.3190723E3,5.0033105E2,4.9710095E2,2.8759814E2,2.7265115E3,1.4572607E2,2.9525625E3,3.4983262E3,1.763584E2,3.4667383E2,1.1271953E3,9.006904E2,9.171223E2,7.217274E2,1.419524E2,2.4951752E1,1.8501178E2,3.104961E2,1.598206E3,1.4809857E3,4.027942E1,1.3955923E3,3.600968E2,1.2877962E2,8.800928E2,2.1397128E2,3.179414E2,1.8215198E2,2.409928E2,2.8634668E2,8.325538E1,2.3253833E2,2.5647861E3,1.2413223E2,3.3647614E1,1.1199873E3,1.1163047E3,1.4521877E3,2.5073105E3,1.2527954E2,1.889584E2,0E0,0E0,0E0,0E0,0E0,0E0,0E0,0E0,0E0,0E0,0E0,0E0,0E0,0E0,0E0,0E0,0E0,0E0,0E0,0E0,0E0,0E0,0E0,0E0,0E0,0E0,0E0,0E0,0E0,0E0,0E0,0E0,0E0,0E0,0E0,0E0,0E0,0E0,0E0,0E0,0E0,0E0,0E0,0E0,0E0,0E0,0E0,0E0,0E0,0E0,0E0,0E0,0E0,0E0,0E0,0E0,0E0,0E0,0E0,0E0,0E0,0E0,0E0,0E0],"parents":[2147483647,0,0,1,1,2,2,3,3,4,4,5,5,6,6,7,7,8,8,9,9,10,10,11,11,12,12,13,13,14,14,15,15,16,16,17,17,18,18,19,19,20,20,21,21,22,22,23,23,24,24,25,25,26,26,27,27,28,28,29,29,30,30,31,31,32,32,33,33,34,34,35,35,36,36,37,37,38,38,39,39,40,40,41,41,42,42,43,43,44,44,45,45,46,46,47,47,48,48,49,49,50,50,51,51,52,52,53,53,54,54,55,55,56,56,57,57,58,58,59,59,60,60,61,61,62,62],"right_children":[2,4,6,8,10,12,14,16,18,20,22,24,26,28,30,32,34,36,38,40,42,44,46,48,50,52,54,56,58,60,62,64,66,68,70,72,74,76,78,80,82,84,86,88,90,92,94,96,98,100,102,104,106,108,110,112,114,116,118,120,122,124,126,-1,-1,-1,-1,-1,-1,-1,-1,-1,-1,-1,-1,-1,-1,-1,-1,-1,-1,-1,-1,-1,-1,-1,-1,-1,-1,-1,-1,-1,-1,-1,-1,-1,-1,-1,-1,-1,-1,-1,-1,-1,-1,-1,-1,-1,-1,-1,-1,-1,-1,-1,-1,-1,-1,-1,-1,-1,-1,-1,-1,-1,-1,-1,-1],"split_conditions":[1.73E0,1.73E0,1E0,4.1538463E0,1E0,6E0,5.05E0,1.3681803E-2,1.958385E-2,1.034378E-2,6.921923E-2,3E0,3.671758E-3,5.495816E-1,1E0,1.0660591E-2,1E0,1.6832479E0,1.1147498E-2,4.9944124E-3,1E0,1.7703202E-2,6.488012E-3,3.62E0,3.62E0,1.2130847E-1,5.7489425E-1,1.286E1,5E0,5E0,8.1162624E-2,4.8799723E-2,1.682495E0,1.7764027E0,1.5571345E0,1.0660591E-2,5.142857E0,1.0589924E-2,1.697875E0,1.439146E-2,1.682495E0,8.1162624E-2,6.891667E0,1.682495E0,1.0416667E-3,1.403E1,1.2733708E-2,1.3997196E-2,3.8773147E-3,1.0575148E0,6.3785665E-2,1.171E1,2.3890708E-2,1.238E1,1.0660591E-2,7.1074486E-2,6.4909545E-5,2.15E2,1E0,7.051994E-3,5.1299343E-3,2.8125E-1,1.3312845E0,-5.8420654E-2,-5.3395485E-3,-3.852279E-2,-5.6792516E-2,-2.8431186E-2,-4.9205154E-2,7.7676834E-3,-2.5515309E-2,-2.9447174E-2,-5.7673216E-4,-4.459367E-2,-2.1567924E-2,-7.984761E-4,-4.7166854E-2,3.075412E-2,5.7751513E-3,-4.8379857E-2,-1.1995347E-2,-1.8263832E-2,-4.2386964E-2,-1.0696557E-2,1.3704595E-2,-7.26364E-2,1.6861977E-2,7.1080136E-3,-2.650638E-2,-1.1856183E-2,3.679924E-2,-5.6067258E-2,-1.088625E-2,3.5060573E-2,6.379717E-2,4.367744E-3,3.4515973E-2,7.7229976E-3,4.6325218E-2,-2.0043442E-2,1.0613622E-2,1.8197114E-2,3.9208066E-2,-1.7442292E-2,-4.8619904E-2,2.4790442E-2,-6.3252956E-2,-3.3579428E-2,-7.1842946E-2,-9.179032E-3,8.804362E-3,-3.6176007E-2,1.1924091E-2,-6.733335E-2,-3.9163794E-2,5.7116657E-2,2.9899983E-2,6.422678E-2,-4.1343726E-2,-2.560232E-2,1.4869871E-2,-4.333539E-3,3.760305E-2,-5.1922794E-2,6.4482376E-2,-5.1830556E-2,1.6190005E-2],"split_indices":[29,24,22,53,68,52,24,17,39,17,5,57,17,15,23,39,68,15,17,17,23,0,0,27,27,5,15,31,21,21,5,18,15,15,15,39,60,9,15,0,15,5,4,15,9,38,6,6,17,15,5,33,9,33,39,5,16,56,23,1,17,3,2,0,0,0,0,0,0,0,0,0,0,0,0,0,0,0,0,0,0,0,0,0,0,0,0,0,0,0,0,0,0,0,0,0,0,0,0,0,0,0,0,0,0,0,0,0,0,0,0,0,0,0,0,0,0,0,0,0,0,0,0,0,0,0,0],"split_type":[0,0,0,0,0,0,0,0,0,0,0,0,0,0,0,0,0,0,0,0,0,0,0,0,0,0,0,0,0,0,0,0,0,0,0,0,0,0,0,0,0,0,0,0,0,0,0,0,0,0,0,0,0,0,0,0,0,0,0,0,0,0,0,0,0,0,0,0,0,0,0,0,0,0,0,0,0,0,0,0,0,0,0,0,0,0,0,0,0,0,0,0,0,0,0,0,0,0,0,0,0,0,0,0,0,0,0,0,0,0,0,0,0,0,0,0,0,0,0,0,0,0,0,0,0,0,0],"sum_hessian":[4.8719184E5,2.4062352E5,2.4656831E5,1.2509848E5,1.1552505E5,1.1223952E5,1.3432878E5,1.065105E5,1.8587977E4,8.182707E4,3.369797E4,2.2892742E4,8.934678E4,6.134555E4,7.2983234E4,7.127532E4,3.523518E4,1.4954234E4,3.6337422E3,5.010486E4,3.1722213E4,2.041531E4,1.3282658E4,1.345624E4,9.436502E3,7.2192407E3,8.212754E4,9.8146826E2,6.0364086E4,7.105803E4,1.9252007E3,2.3075758E4,4.8199562E4,2.656011E4,8.675071E3,1.1009725E4,3.9445103E3,1.6551015E2,3.4682322E3,1.234923E4,3.775563E4,3.0815566E4,9.066473E2,1.5824223E4,4.591089E3,7.382721E2,1.2544387E4,2.3559236E3,1.1100316E4,1.9379176E3,7.4985845E3,6.9956978E3,2.2354297E2,1.8776683E3,8.0249875E4,5.438706E2,4.375977E2,1.697874E4,4.3385344E4,2.3368748E4,4.7689285E4,1.5110895E3,4.1411124E2,2.2763734E4,3.120244E2,3.7276984E4,1.0922579E4,1.9421957E4,7.1381514E3,5.2665713E3,3.4084998E3,2.9600542E3,8.0496704E3,3.0860151E3,8.584952E2,3.7474014E1,1.2803613E2,2.393828E3,1.074404E3,1.1731212E4,6.180189E2,2.8733135E4,9.022495E3,2.2175176E4,8.640391E3,8.942421E2,1.2405118E1,1.1620103E4,4.20412E3,4.1792596E2,4.173163E3,2.2762991E2,5.1064218E2,8.70021E3,3.844176E3,1.2139674E3,1.1419562E3,5.6231445E2,1.0538002E4,9.9783325E2,9.400844E2,5.703546E3,1.7950385E3,8.3816046E2,6.1575376E3,1.9336024E2,3.0182735E1,5.75115E2,1.3025532E3,3.576942E4,4.4480453E4,3.068679E2,2.3700273E2,2.2874133E2,2.0885635E2,5.6847964E3,1.1293942E4,4.3134113E4,2.5123206E2,2.4785444E3,2.0890203E4,3.8796304E3,4.3809656E4,1.4884198E3,2.2669682E1,1.7901305E2,2.350982E2],"tree_param":{"num_deleted":"0","num_feature":"70","num_nodes":"127","size_leaf_vector":"1"}},{"base_weights":[2.7219625E-4,-4.3913454E-1,4.2530942E-1,-6.892996E-1,-1.6777606E-1,2.1842971E-1,9.4032484E-1,-7.6094025E-1,-3.0904729E-2,-3.8788074E-1,3.6573654E-1,-3.496963E-2,5.0349194E-1,6.498855E-1,1.242581E0,-9.2938495E-1,-5.37592E-1,-5.3272504E-1,1.007816E-1,-4.8601907E-1,1.3054746E-1,-5.0034754E-2,6.20681E-1,-3.9784983E-1,1.3093592E-1,3.731266E-1,1.007233E0,4.4579598E-1,1.0218675E0,-4.6970168E-1,1.2719159E0,-1.1474227E0,-8.40078E-1,-6.753136E-1,-6.2433317E-2,-7.0922184E-1,-2.145041E-1,-1.5503283E-1,3.0306792E-1,-7.2818285E-1,-3.5180312E-1,1.3477444E-2,6.8012017E-1,-7.705758E-1,4.7200143E-2,2.909082E-1,8.467693E-1,-1.0250976E0,-3.2796648E-1,-3.2195935E-1,2.3817594E-1,1.8918395E-1,6.830398E-1,8.529434E-1,1.2963452E0,-3.4997737E-1,5.3883445E-1,-9.779846E-1,1.0510257E0,-1.0209515E0,6.7736425E-2,2.3825182E-1,1.3069658E0,-5.7904463E-2,-2.03979E-2,-6.1706126E-2,-3.9802585E-2,-5.0425477E-2,-2.9484792E-2,-2.327361E-2,4.4952845E-3,-3.113906E-2,-6.503629E-2,-3.6282625E-2,-2.275952E-3,-2.8727797E-3,-4.3212835E-2,7.506538E-3,2.9420031E-2,-4.1724093E-2,-2.0407518E-2,-4.765391E-2,-1.3538751E-2,-5.6797825E-3,2.4757652E-2,-1.205024E-2,4.38516E-2,-4.3652486E-2,5.64478E-4,-7.9044895E-3,2.072481E-2,-2.4104096E-2,1.8948397E-2,3.258341E-2,6.0811996E-2,-5.6581777E-2,-1.3243334E-2,-1.3206564E-2,-5.1117666E-2,-5.8834232E-2,-1.2736553E-2,-6.8253905E-2,1.3002398E-2,-7.137548E-2,1.0911192E-2,-4.844315E-2,3.5713267E-2,3.5611417E-2,5.7173736E-2,5.777926E-2,7.01703E-2,-8.930623E-3,-4.4871856E-2,-4.2987186E-2,2.9485026E-2,-5.982333E-2,-3.0000344E-2,5.3323098E-2,-2.155753E-2,-6.842693E-2,-3.4902614E-2,-2.9109806E-2,2.5052208E-2,2.5202071E-2,-4.897113E-2,5.8492165E-2,7.2377734E-2],"categories":[],"categories_nodes":[],"categories_segments":[],"categories_sizes":[],"default_left":[1,1,0,1,0,1,1,0,0,0,0,0,1,0,0,0,0,0,0,0,0,0,0,0,0,0,0,0,0,0,0,0,0,0,0,0,0,0,0,0,0,0,0,0,0,0,0,1,0,0,0,0,0,0,0,0,0,0,0,0,0,0,0,0,0,0,0,0,0,0,0,0,0,0,0,0,0,0,0,0,0,0,0,0,0,0,0,0,0,0,0,0,0,0,0,0,0,0,0,0,0,0,0,0,0,0,0,0,0,0,0,0,0,0,0,0,0,0,0,0,0,0,0,0,0,0,0],"id":6,"left_children":[1,3,5,7,9,11,13,15,17,19,21,23,25,27,29,31,33,35,37,39,41,43,45,47,49,51,53,55,57,59,61,63,65,67,69,71,73,75,77,79,81,83,85,87,89,91,93,95,97,99,101,103,105,107,109,111,113,115,117,119,121,123,125,-1,-1,-1,-1,-1,-1,-1,-1,-1,-1,-1,-1,-1,-1,-1,-1,-1,-1,-1,-1,-1,-1,-1,-1,-1,-1,-1,-1,-1,-1,-1,-1,-1,-1,-1,-1,-1,-1,-1,-1,-1,-1,-1,-1,-1,-1,-1,-1,-1,-1,-1,-1,-1,-1,-1,-1,-1,-1,-1,-1,-1,-1,-1,-1],"loss_changes":[9.0675414E4,1.6205148E4,2.6294238E4,5.858664E3,1.3446904E4,1.2718061E4,6.2078594E3,4.213914E3,8.056105E2,4.1245273E3,3.5451338E3,5.6116772E3,5.440838E3,2.737831E3,1.7413555E3,1.2424922E3,3.1517637E3,1.4217572E2,4.997749E2,2.2152021E3,8.3021686E2,8.907711E2,1.5455044E3,1.2815869E3,3.1068364E3,3.7522314E3,7.587207E2,1.7247041E3,7.4612695E2,1.7322241E2,1.234125E3,1.4586328E2,7.85E2,1.0646387E3,6.6462213E2,8.251111E1,7.8181366E1,2.9510306E2,2.3525284E2,8.265254E2,2.1365288E3,6.5124567E2,4.1123267E2,1.2113031E2,8.447846E2,5.7428326E2,8.857842E2,2.3710449E2,1.1661633E3,7.0343787E2,1.8140071E3,1.9396748E3,1.2652871E3,4.5336523E2,8.7671875E1,2.286365E2,1.4841108E3,1.4488892E1,2.886123E2,3.1434113E1,8.389773E1,3.625468E2,6.3360547E2,0E0,0E0,0E0,0E0,0E0,0E0,0E0,0E0,0E0,0E0,0E0,0E0,0E0,0E0,0E0,0E0,0E0,0E0,0E0,0E0,0E0,0E0,0E0,0E0,0E0,0E0,0E0,0E0,0E0,0E0,0E0,0E0,0E0,0E0,0E0,0E0,0E0,0E0,0E0,0E0,0E0,0E0,0E0,0E0,0E0,0E0,0E0,0E0,0E0,0E0,0E0,0E0,0E0,0E0,0E0,0E0,0E0,0E0,0E0,0E0,0E0,0E0,0E0,0E0],"parents":[2147483647,0,0,1,1,2,2,3,3,4,4,5,5,6,6,7,7,8,8,9,9,10,10,11,11,12,12,13,13,14,14,15,15,16,16,17,17,18,18,19,19,20,20,21,21,22,22,23,23,24,24,25,25,26,26,27,27,28,28,29,29,30,30,31,31,32,32,33,33,34,34,35,35,36,36,37,37,38,38,39,39,40,40,41,41,42,42,43,43,44,44,45,45,46,46,47,47,48,48,49,49,50,50,51,51,52,52,53,53,54,54,55,55,56,56,57,57,58,58,59,59,60,60,61,61,62,62],"right_children":[2,4,6,8,10,12,14,16,18,20,22,24,26,28,30,32,34,36,38,40,42,44,46,48,50,52,54,56,58,60,62,64,66,68,70,72,74,76,78,80,82,84,86,88,90,92,94,96,98,100,102,104,106,108,110,112,114,116,118,120,122,124,126,-1,-1,-1,-1,-1,-1,-1,-1,-1,-1,-1,-1,-1,-1,-1,-1,-1,-1,-1,-1,-1,-1,-1,-1,-1,-1,-1,-1,-1,-1,-1,-1,-1,-1,-1,-1,-1,-1,-1,-1,-1,-1,-1,-1,-1,-1,-1,-1,-1,-1,-1,-1,-1,-1,-1,-1,-1,-1,-1,-1,-1,-1,-1,-1],"split_conditions":[-1E-5,1.75E0,1E0,-1E-5,1E0,2.25E0,-1E-5,1.75E-1,1.0660591E-2,1.6888132E-2,7.857264E-1,1.0660591E-2,-1E-5,1.5625E-1,7.70913E-3,1.0660591E-2,1E0,3E0,1.75E-1,1.0660591E-2,9.531746E-2,1.0416667E-3,6.139128E-2,7.8965E-1,8.264069E-1,1E0,6.597234E-2,7.8592E-1,7.70913E-3,1.3071167E-2,3.016438E-1,2.7633544E-2,1.0416667E-3,1.0660591E-2,5.6711077E-3,2.0202227E0,9.090909E-2,1.8903593E0,1.0714286E-1,1.2733708E-2,5.4959E-3,4.805E1,1.765E1,7.936751E-2,1.592E1,1.0416667E-3,1.2733708E-2,1.532E1,1.1208494E0,2.9429892E-2,7.70913E-3,7.70913E-3,7.70913E-3,6.595764E-2,1E0,7.3822355E-1,2.752365E-1,7.473944E-2,1.5E1,9.217328E-3,6.155279E-2,4.49E0,6.0861558E-2,-5.7904463E-2,-2.03979E-2,-6.1706126E-2,-3.9802585E-2,-5.0425477E-2,-2.9484792E-2,-2.327361E-2,4.4952845E-3,-3.113906E-2,-6.503629E-2,-3.6282625E-2,-2.275952E-3,-2.8727797E-3,-4.3212835E-2,7.506538E-3,2.9420031E-2,-4.1724093E-2,-2.0407518E-2,-4.765391E-2,-1.3538751E-2,-5.6797825E-3,2.4757652E-2,-1.205024E-2,4.38516E-2,-4.3652486E-2,5.64478E-4,-7.9044895E-3,2.072481E-2,-2.4104096E-2,1.8948397E-2,3.258341E-2,6.0811996E-2,-5.6581777E-2,-1.3243334E-2,-1.3206564E-2,-5.1117666E-2,-5.8834232E-2,-1.2736553E-2,-6.8253905E-2,1.3002398E-2,-7.137548E-2,1.0911192E-2,-4.844315E-2,3.5713267E-2,3.5611417E-2,5.7173736E-2,5.777926E-2,7.01703E-2,-8.930623E-3,-4.4871856E-2,-4.2987186E-2,2.9485026E-2,-5.982333E-2,-3.0000344E-2,5.3323098E-2,-2.155753E-2,-6.842693E-2,-3.4902614E-2,-2.9109806E-2,2.5052208E-2,2.5202071E-2,-4.897113E-2,5.8492165E-2,7.2377734E-2],"split_indices":[30,34,68,57,68,24,24,4,39,0,2,39,57,4,14,39,68,60,4,39,5,9,5,7,2,67,5,7,14,0,2,6,9,39,9,10,43,7,62,6,9,26,26,5,28,9,6,26,10,5,14,14,14,13,67,7,10,13,23,0,5,24,5,0,0,0,0,0,0,0,0,0,0,0,0,0,0,0,0,0,0,0,0,0,0,0,0,0,0,0,0,0,0,0,0,0,0,0,0,0,0,0,0,0,0,0,0,0,0,0,0,0,0,0,0,0,0,0,0,0,0,0,0,0,0,0,0],"split_type":[0,0,0,0,0,0,0,0,0,0,0,0,0,0,0,0,0,0,0,0,0,0,0,0,0,0,0,0,0,0,0,0,0,0,0,0,0,0,0,0,0,0,0,0,0,0,0,0,0,0,0,0,0,0,0,0,0,0,0,0,0,0,0,0,0,0,0,0,0,0,0,0,0,0,0,0,0,0,0,0,0,0,0,0,0,0,0,0,0,0,0,0,0,0,0,0,0,0,0,0,0,0,0,0,0,0,0,0,0,0,0,0,0,0,0,0,0,0,0,0,0,0,0,0,0,0,0],"sum_hessian":[4.855055E5,2.3871748E5,2.4678802E5,1.2420839E5,1.1450909E5,1.7606486E5,7.072315E4,1.120193E5,1.2189098E4,8.106527E4,3.344382E4,9.320942E4,8.2855445E4,3.6068195E4,3.465495E4,6.385671E4,4.8162582E4,2.5331013E3,9.655997E3,6.816224E4,1.2903032E4,1.2712569E4,2.073125E4,2.9243846E4,6.3965574E4,6.582266E4,1.703279E4,2.3291445E4,1.2776748E4,5.8345856E2,3.4071492E4,1.8551775E4,4.5304934E4,3.7339543E4,1.082304E4,1.6285951E3,9.045063E2,4.26396E3,5.3920366E3,2.4304883E4,4.3857355E4,1.0637958E4,2.265074E3,1.5107218E3,1.1201847E4,8.433062E3,1.2298188E4,2.9301553E3,2.6313691E4,1.2246067E4,5.1719504E4,4.130721E4,2.4515441E4,1.1108499E4,5.9242896E3,2.437798E3,2.0853648E4,1.8314297E2,1.2593605E4,2.875841E2,2.9587445E2,1.1176729E3,3.295382E4,1.8287418E4,2.6435825E2,4.550448E3,4.075449E4,7.631092E3,2.9708451E4,2.9681736E3,7.8548667E3,1.4227339E3,2.0586128E2,2.2391396E2,6.8059235E2,3.7492126E3,5.147474E2,3.5114434E3,1.8805933E3,1.824364E4,6.0612437E3,5.20708E3,3.8650277E4,8.417945E3,2.2200132E3,3.988918E2,1.8661823E3,1.335562E3,1.751598E2,7.186001E3,4.0158462E3,8.619929E2,7.5710684E3,8.050068E3,4.248121E3,2.56957E3,3.605854E2,2.4099588E4,2.2141023E3,8.917722E2,1.1354295E4,6.9524866E2,5.1024258E4,7.280391E2,4.057917E4,4.5425522E2,2.4061188E4,7.486137E3,3.6223618E3,2.5644404E3,3.3598494E3,1.857647E3,5.8015125E2,7.312698E2,2.0122379E4,1.1468584E2,6.845714E1,1.2464079E4,1.2952646E2,1.36938E2,1.506461E2,1.1821551E2,1.7765894E2,9.1790247E2,1.9977042E2,1.6687299E4,1.62665205E4],"tree_param":{"num_deleted":"0","num_feature":"70","num_nodes":"127","size_leaf_vector":"1"}},{"base_weights":[-1.3761516E-3,-4.1962123E-1,4.051062E-1,-5.769181E-1,-2.277182E-2,4.70067E-2,7.058252E-1,-7.6257545E-1,-3.6993766E-1,-3.7733382E-1,3.884731E-1,5.554951E-1,-8.252225E-2,1.0370498E0,4.6402133E-1,-3.084442E-1,-8.5184205E-1,-7.37544E-1,-2.3692097E-1,-5.9000844E-1,2.3178063E-2,1.2812853E-1,7.6472324E-1,6.545377E-1,1.4776479E-1,-8.081912E-1,-1.8916255E-2,-5.671416E-1,1.0630317E0,4.9945375E-1,-8.430257E-1,-5.000038E-1,3.678432E-2,-1.0123622E0,-6.736379E-1,-7.937115E-1,-2.9359984E-1,-1.5720843E-1,-7.3927015E-1,-4.4239616E-1,-9.7949255E-1,5.00758E-1,-1.0456306E-1,-2.7759956E-2,6.237808E-1,5.797649E-1,1.2127463E0,8.040488E-1,4.3599573E-1,-4.307553E-1,3.2836735E-1,-1.2365338E0,-7.0164996E-1,7.101728E-3,-1.2153431E0,-7.290891E-1,4.20875E-1,1.2290403E0,8.3502835E-1,-7.906853E-1,5.3294486E-1,-1.0137695E0,-2.0530348E-1,-3.168461E-2,-2.6705107E-3,-4.6678255E-3,2.2466518E-2,-5.121654E-2,-1.0712238E-2,-2.8893275E-2,-4.8056405E-2,-5.3820353E-2,-3.527591E-2,-2.0046387E-2,6.0768705E-2,-3.7113376E-2,-3.892184E-3,-4.4877376E-2,4.072146E-3,-5.036932E-2,-1.3080086E-2,-5.0061096E-2,6.045688E-2,1.3500399E-2,3.7166696E-2,-2.1093428E-2,3.0203676E-3,6.704606E-3,-2.3989733E-2,5.9209563E-2,2.5317047E-2,-1.3524991E-2,3.378648E-2,6.47836E-2,1.1251792E-2,6.3806E-3,4.2134356E-2,1.7210443E-2,4.1561253E-2,-2.69036E-2,1.2045377E-2,3.2679006E-2,1.4744427E-3,-6.60684E-2,8.621415E-3,-3.7261333E-2,1.1536644E-2,-6.039839E-3,1.1401324E-2,-7.280021E-2,-3.498606E-2,-5.9602696E-2,-2.6343286E-2,4.6473823E-2,-2.0609513E-2,5.1109314E-2,6.784269E-2,3.4017134E-2,5.6739997E-2,-6.362254E-2,-1.3850599E-2,1.9955141E-2,4.000439E-2,-5.22196E-2,5.2926328E-2,-4.0236946E-2,2.2240596E-2],"categories":[],"categories_nodes":[],"categories_segments":[],"categories_sizes":[],"default_left":[1,0,0,1,1,0,0,0,0,0,0,0,0,0,0,0,0,0,0,0,0,0,0,0,0,0,0,0,0,0,0,0,0,0,0,0,0,0,0,0,0,0,0,0,0,0,0,0,0,0,0,0,0,1,0,0,0,0,1,0,0,0,0,0,0,0,0,0,0,0,0,0,0,0,0,0,0,0,0,0,0,0,0,0,0,0,0,0,0,0,0,0,0,0,0,0,0,0,0,0,0,0,0,0,0,0,0,0,0,0,0,0,0,0,0,0,0,0,0,0,0,0,0,0,0,0,0],"id":7,"left_children":[1,3,5,7,9,11,13,15,17,19,21,23,25,27,29,31,33,35,37,39,41,43,45,47,49,51,53,55,57,59,61,63,65,67,69,71,73,75,77,79,81,83,85,87,89,91,93,95,97,99,101,103,105,107,109,111,113,115,117,119,121,123,125,-1,-1,-1,-1,-1,-1,-1,-1,-1,-1,-1,-1,-1,-1,-1,-1,-1,-1,-1,-1,-1,-1,-1,-1,-1,-1,-1,-1,-1,-1,-1,-1,-1,-1,-1,-1,-1,-1,-1,-1,-1,-1,-1,-1,-1,-1,-1,-1,-1,-1,-1,-1,-1,-1,-1,-1,-1,-1,-1,-1,-1,-1,-1,-1],"loss_changes":[8.2182195E4,1.487243E4,2.6399133E4,6.556328E3,9.861387E3,7.3701357E3,1.0671602E4,3.6459375E3,3.944921E3,3.093565E3,3.0671138E3,9.1729834E2,4.116353E3,2.3441328E3,3.5674941E3,9.772506E2,2.1495117E3,5.34291E2,2.3722595E3,1.3634023E3,7.685794E2,1.4300684E3,1.0604341E3,5.968535E2,4.6416382E2,3.2711816E2,2.5524343E3,1.4380133E2,2.0932852E3,3.240629E3,2.2118774E2,5.673804E2,2.832144E2,3.7751562E2,9.8031836E2,4.7365332E2,3.9065576E2,2.374189E3,1.0539854E3,1.7570898E3,3.1122656E2,1.4861371E2,5.203358E2,1.03025E3,2.9084692E2,7.398965E2,3.0611133E2,2.835122E2,2.691372E2,7.632085E1,3.2901266E2,1.7118115E2,2.3411035E2,2.2676223E3,2.1554004E2,7.154288E1,5.4162792E1,8.4508594E2,1.0803877E3,4.6930884E2,2.6131465E3,1.0286743E2,1.681901E2,0E0,0E0,0E0,0E0,0E0,0E0,0E0,0E0,0E0,0E0,0E0,0E0,0E0,0E0,0E0,0E0,0E0,0E0,0E0,0E0,0E0,0E0,0E0,0E0,0E0,0E0,0E0,0E0,0E0,0E0,0E0,0E0,0E0,0E0,0E0,0E0,0E0,0E0,0E0,0E0,0E0,0E0,0E0,0E0,0E0,0E0,0E0,0E0,0E0,0E0,0E0,0E0,0E0,0E0,0E0,0E0,0E0,0E0,0E0,0E0,0E0,0E0,0E0,0E0],"parents":[2147483647,0,0,1,1,2,2,3,3,4,4,5,5,6,6,7,7,8,8,9,9,10,10,11,11,12,12,13,13,14,14,15,15,16,16,17,17,18,18,19,19,20,20,21,21,22,22,23,23,24,24,25,25,26,26,27,27,28,28,29,29,30,30,31,31,32,32,33,33,34,34,35,35,36,36,37,37,38,38,39,39,40,40,41,41,42,42,43,43,44,44,45,45,46,46,47,47,48,48,49,49,50,50,51,51,52,52,53,53,54,54,55,55,56,56,57,57,58,58,59,59,60,60,61,61,62,62],"right_children":[2,4,6,8,10,12,14,16,18,20,22,24,26,28,30,32,34,36,38,40,42,44,46,48,50,52,54,56,58,60,62,64,66,68,70,72,74,76,78,80,82,84,86,88,90,92,94,96,98,100,102,104,106,108,110,112,114,116,118,120,122,124,126,-1,-1,-1,-1,-1,-1,-1,-1,-1,-1,-1,-1,-1,-1,-1,-1,-1,-1,-1,-1,-1,-1,-1,-1,-1,-1,-1,-1,-1,-1,-1,-1,-1,-1,-1,-1,-1,-1,-1,-1,-1,-1,-1,-1,-1,-1,-1,-1,-1,-1,-1,-1,-1,-1,-1,-1,-1,-1,-1,-1,-1,-1,-1,-1],"split_conditions":[1.73E0,1E0,1E0,2.42E0,5E-1,6E0,4.67E0,9.27E2,6.4776517E-3,1.5625E-1,6.921923E-2,1.856E1,3.671758E-3,5.495816E-1,1E0,1.6519235E-2,1.161775E-2,1.4348E-2,1.9845858E0,1.682495E0,1.5E1,1.7703202E-2,1.2733708E-2,3E0,1.0366664E0,1.8709677E-1,1E0,2.2784155E-2,1.5729805E-2,5.7489425E-1,8.1162624E-2,4E0,1.0714286E-1,4.8799723E-2,1.7764027E0,3.671758E-3,1.7251E2,5.260618E-3,3.799283E-2,4.5576736E-1,2.8125E-1,4.9375E-1,4.513339E-2,1.682495E0,6.25E-3,1.0416667E-3,1.8490518E-2,3.8773147E-3,6.77781E-2,1.3189144E0,7.6E0,1.56E1,1.1196865E-1,2.58E0,9.383026E-2,1.0714286E-2,1.6519235E-2,7.857264E-1,-1E-5,5.495816E-1,1.958385E-2,2.8125E-1,1.958385E-2,-3.168461E-2,-2.6705107E-3,-4.6678255E-3,2.2466518E-2,-5.121654E-2,-1.0712238E-2,-2.8893275E-2,-4.8056405E-2,-5.3820353E-2,-3.527591E-2,-2.0046387E-2,6.0768705E-2,-3.7113376E-2,-3.892184E-3,-4.4877376E-2,4.072146E-3,-5.036932E-2,-1.3080086E-2,-5.0061096E-2,6.045688E-2,1.3500399E-2,3.7166696E-2,-2.1093428E-2,3.0203676E-3,6.704606E-3,-2.3989733E-2,5.9209563E-2,2.5317047E-2,-1.3524991E-2,3.378648E-2,6.47836E-2,1.1251792E-2,6.3806E-3,4.2134356E-2,1.7210443E-2,4.1561253E-2,-2.69036E-2,1.2045377E-2,3.2679006E-2,1.4744427E-3,-6.60684E-2,8.621415E-3,-3.7261333E-2,1.1536644E-2,-6.039839E-3,1.1401324E-2,-7.280021E-2,-3.498606E-2,-5.9602696E-2,-2.6343286E-2,4.6473823E-2,-2.0609513E-2,5.1109314E-2,6.784269E-2,3.4017134E-2,5.6739997E-2,-6.362254E-2,-1.3850599E-2,1.9955141E-2,4.000439E-2,-5.22196E-2,5.2926328E-2,-4.0236946E-2,2.2240596E-2],"split_indices":[29,68,22,26,35,52,24,46,17,4,5,28,17,15,23,40,17,6,15,15,45,0,6,57,7,10,23,0,40,15,5,60,62,18,15,17,27,9,8,10,11,12,13,15,4,9,6,17,13,15,30,30,5,24,5,0,40,2,44,15,39,3,39,0,0,0,0,0,0,0,0,0,0,0,0,0,0,0,0,0,0,0,0,0,0,0,0,0,0,0,0,0,0,0,0,0,0,0,0,0,0,0,0,0,0,0,0,0,0,0,0,0,0,0,0,0,0,0,0,0,0,0,0,0,0,0,0],"split_type":[0,0,0,0,0,0,0,0,0,0,0,0,0,0,0,0,0,0,0,0,0,0,0,0,0,0,0,0,0,0,0,0,0,0,0,0,0,0,0,0,0,0,0,0,0,0,0,0,0,0,0,0,0,0,0,0,0,0,0,0,0,0,0,0,0,0,0,0,0,0,0,0,0,0,0,0,0,0,0,0,0,0,0,0,0,0,0,0,0,0,0,0,0,0,0,0,0,0,0,0,0,0,0,0,0,0,0,0,0,0,0,0,0,0,0,0,0,0,0,0,0,0,0,0,0,0,0],"sum_hessian":[4.8339638E5,2.3825094E5,2.4514544E5,1.7062202E5,6.762891E4,1.1189766E5,1.3324778E5,8.99426E4,8.067942E4,3.631735E4,3.1311559E4,2.271656E4,8.918109E4,5.6225895E4,7.702189E4,1.4776034E4,7.516657E4,2.1435496E4,5.924392E4,2.3720908E4,1.2596442E4,1.850704E4,1.280452E4,1.82764E4,4.4401606E3,7.185972E3,8.1995125E4,8.9580237E2,5.5330094E4,7.498963E4,2.032259E3,9.502732E3,5.2733022E3,3.9542957E4,3.5623613E4,1.9027379E4,2.4081172E3,5.1131684E4,8.1122393E3,1.7203146E4,6.517761E3,2.6576155E3,9.938827E3,1.4079738E4,4.4273E3,9.064639E3,3.7398806E3,1.085054E4,7.42586E3,1.0560273E3,3.384133E3,1.4292306E3,5.756741E3,8.0250945E4,1.7441755E3,7.698732E2,1.25929184E2,3.201539E4,2.3314701E4,1.8968508E3,7.309278E4,1.6025913E3,4.296677E2,7.3131206E3,2.1896113E3,4.0093088E3,1.2639937E3,3.8958453E4,5.84503E2,2.6723988E4,8.899627E3,4.521839E3,1.4505541E4,2.2488955E3,1.5922154E2,6.1066294E3,4.5025055E4,6.800622E3,1.3116172E3,4.169309E3,1.3033838E4,6.4542246E3,6.3536907E1,1.3630907E3,1.2945249E3,3.3992063E3,6.53962E3,1.0368114E4,3.7116243E3,7.654711E2,3.6618289E3,9.1913245E2,8.145507E3,3.4499216E3,2.8995905E2,5.865293E2,1.0264011E4,6.027843E3,1.3980172E3,9.107145E2,1.4531294E2,1.6200995E3,1.7640337E3,1.3481216E3,8.110896E1,5.499894E3,2.5684753E2,5.0826656E4,2.942429E4,1.1879082E3,5.5626733E2,2.3256056E2,5.373127E2,7.8119865E1,4.780932E1,1.2230501E4,1.978489E4,1.5381126E4,7.9335747E3,9.78064E2,9.187868E2,4.86973E4,2.4395479E4,1.5797434E3,2.2847939E1,2.2342346E2,2.0624423E2],"tree_param":{"num_deleted":"0","num_feature":"70","num_nodes":"127","size_leaf_vector":"1"}},{"base_weights":[4.2199783E-4,-3.9863133E-1,3.845665E-1,-6.312323E-1,-1.491703E-1,4.5427207E-2,6.731217E-1,-7.1778387E-1,-1.4468455E-1,-3.506465E-1,3.3455747E-1,5.31456E-1,-7.871617E-2,9.527789E-1,4.0606567E-1,-8.4538853E-1,-4.624833E-1,-2.725469E-1,3.7592098E-1,-5.241021E-1,-8.2009666E-2,-4.609623E-2,5.690442E-1,8.890403E-1,4.3013176E-1,-7.4931616E-1,-1.8868126E-2,6.2993366E-1,1.0983312E0,-3.847511E-1,4.7055137E-1,-1.0353127E0,-7.561924E-1,-5.899891E-1,-7.6757744E-2,-1.372754E-1,-7.833505E-1,-3.6836103E-1,4.5534527E-1,-8.5027355E-1,-4.2094293E-1,5.095498E-3,-5.998129E-1,1.1904406E-1,-5.13415E-1,4.0924606E-1,9.6906245E-1,-7.6520395E-1,9.822493E-1,-3.6600795E-1,5.249243E-1,-8.7802917E-1,-3.0386904E-1,3.3282688E-1,-1.2589966E-1,4.564039E-1,9.885248E-1,-4.3424654E-1,1.1247747E0,-2.4222003E-1,-8.635138E-1,1.3207442E-1,6.21586E-1,-5.2480426E-2,-1.2989717E-3,-3.383496E-2,-5.1359154E-2,-2.4379881E-2,-4.3571714E-2,8.559164E-3,-2.316374E-2,-3.3348676E-2,-1.563983E-3,-4.1696023E-2,8.507217E-3,-5.085103E-2,-7.7115707E-3,2.9981574E-2,7.0645805E-3,-4.4122737E-2,2.5449127E-3,-1.5939547E-2,-3.7392702E-2,-3.365531E-2,4.113755E-3,-3.7712876E-2,-6.9898495E-4,-3.824948E-2,1.18584065E-2,-3.174491E-2,4.6170233E-3,-1.905101E-2,2.4849687E-2,3.5530597E-2,6.671968E-2,-6.2179323E-2,-2.334369E-2,6.581151E-2,3.8323734E-2,-2.4873486E-2,9.840993E-3,1.9013174E-2,4.0691223E-2,-4.5563612E-2,1.0864623E-2,-2.9292906E-2,8.068544E-4,-5.6185197E-2,2.4510898E-2,-3.5374608E-2,-1.6716162E-3,-3.9436877E-2,2.5223238E-2,3.992756E-2,6.1294693E-2,-4.5061614E-2,-4.1315667E-3,5.004036E-2,6.784832E-2,-1.5391235E-2,3.0518645E-2,-5.59578E-2,-1.9810231E-2,-4.8843143E-3,1.9576093E-2,-5.8219638E-2,3.2335304E-2],"categories":[],"categories_nodes":[],"categories_segments":[],"categories_sizes":[],"default_left":[1,1,0,1,0,0,0,0,0,0,0,0,0,0,0,0,0,0,0,0,0,0,0,0,0,0,0,1,0,0,0,0,0,0,0,0,0,0,0,0,0,0,0,0,0,0,0,0,0,0,0,0,0,0,0,0,0,0,1,0,0,0,0,0,0,0,0,0,0,0,0,0,0,0,0,0,0,0,0,0,0,0,0,0,0,0,0,0,0,0,0,0,0,0,0,0,0,0,0,0,0,0,0,0,0,0,0,0,0,0,0,0,0,0,0,0,0,0,0,0,0,0,0,0,0,0,0],"id":8,"left_children":[1,3,5,7,9,11,13,15,17,19,21,23,25,27,29,31,33,35,37,39,41,43,45,47,49,51,53,55,57,59,61,63,65,67,69,71,73,75,77,79,81,83,85,87,89,91,93,95,97,99,101,103,105,107,109,111,113,115,117,119,121,123,125,-1,-1,-1,-1,-1,-1,-1,-1,-1,-1,-1,-1,-1,-1,-1,-1,-1,-1,-1,-1,-1,-1,-1,-1,-1,-1,-1,-1,-1,-1,-1,-1,-1,-1,-1,-1,-1,-1,-1,-1,-1,-1,-1,-1,-1,-1,-1,-1,-1,-1,-1,-1,-1,-1,-1,-1,-1,-1,-1,-1,-1,-1,-1,-1],"loss_changes":[7.378854E4,1.3699277E4,2.4001E4,5.1449023E3,1.1102723E4,6.8029272E3,9.896094E3,3.3786836E3,1.2284219E3,3.7474238E3,2.989941E3,8.307554E2,3.6044016E3,3.0409219E3,3.4569434E3,1.1707617E3,1.7001201E3,1.02355664E3,2.1527502E2,1.6439697E3,1.4232628E3,9.855512E2,1.3246138E3,7.81562E2,1.3492913E3,4.2162305E2,3.1037358E3,1.2513027E3,1.8084844E3,3.485699E2,3.2039355E3,3.1881836E2,1.0130742E3,7.482676E2,8.232211E2,6.5768225E2,1.4969702E2,4.8654663E1,1.489259E2,3.405498E2,1.2396675E3,1.4139855E3,4.1111743E2,9.8557874E2,2.4544159E2,1.027406E3,5.5765576E2,3.8048615E1,3.444878E2,1.4087094E2,6.6731836E2,2.0804639E2,1.4900142E2,4.410818E3,3.3995574E3,8.1174023E2,2.9480176E2,1.2429332E2,1.261E3,2.2056862E2,1.3958801E2,1.1528452E3,1.9449922E3,0E0,0E0,0E0,0E0,0E0,0E0,0E0,0E0,0E0,0E0,0E0,0E0,0E0,0E0,0E0,0E0,0E0,0E0,0E0,0E0,0E0,0E0,0E0,0E0,0E0,0E0,0E0,0E0,0E0,0E0,0E0,0E0,0E0,0E0,0E0,0E0,0E0,0E0,0E0,0E0,0E0,0E0,0E0,0E0,0E0,0E0,0E0,0E0,0E0,0E0,0E0,0E0,0E0,0E0,0E0,0E0,0E0,0E0,0E0,0E0,0E0,0E0,0E0,0E0],"parents":[2147483647,0,0,1,1,2,2,3,3,4,4,5,5,6,6,7,7,8,8,9,9,10,10,11,11,12,12,13,13,14,14,15,15,16,16,17,17,18,18,19,19,20,20,21,21,22,22,23,23,24,24,25,25,26,26,27,27,28,28,29,29,30,30,31,31,32,32,33,33,34,34,35,35,36,36,37,37,38,38,39,39,40,40,41,41,42,42,43,43,44,44,45,45,46,46,47,47,48,48,49,49,50,50,51,51,52,52,53,53,54,54,55,55,56,56,57,57,58,58,59,59,60,60,61,61,62,62],"right_children":[2,4,6,8,10,12,14,16,18,20,22,24,26,28,30,32,34,36,38,40,42,44,46,48,50,52,54,56,58,60,62,64,66,68,70,72,74,76,78,80,82,84,86,88,90,92,94,96,98,100,102,104,106,108,110,112,114,116,118,120,122,124,126,-1,-1,-1,-1,-1,-1,-1,-1,-1,-1,-1,-1,-1,-1,-1,-1,-1,-1,-1,-1,-1,-1,-1,-1,-1,-1,-1,-1,-1,-1,-1,-1,-1,-1,-1,-1,-1,-1,-1,-1,-1,-1,-1,-1,-1,-1,-1,-1,-1,-1,-1,-1,-1,-1,-1,-1,-1,-1,-1,-1,-1,-1,-1,-1],"split_conditions":[-1E-5,1.75E0,1E0,4.1538463E0,1E0,5.4444447E0,6.59E0,1.3681803E-2,1.958385E-2,1.034378E-2,7.857264E-1,9.714547E-3,3.671758E-3,5E0,7.8592E-1,1.0660591E-2,1E0,1.7764027E0,1.3443177E-2,4.9944124E-3,1.9845858E0,1.682495E0,8.468878E-2,5.7489425E-1,8.1053495E-1,1.2733708E-2,9.714547E-3,-1E-5,7.70913E-3,7.3822355E-1,5E0,4.8799723E-2,1.682495E0,1.7764027E0,1.5571345E0,9.826643E-3,2.7633544E-2,1.1205273E-2,1.697875E0,1.2472058E-1,1.682495E0,6.0921283E-3,3.799283E-2,1.0416667E-3,1.719E1,1.0416667E-3,1.17E1,7.575758E-3,2.31E1,1.4348E-2,1.4051386E-2,1.2130847E-1,3.1619312E-3,5.7489425E-1,8.1053495E-1,5.422034E-3,6.568692E-2,1.0634452E0,3.3333334E-1,1.0728343E-1,6.25E-3,6.539369E-2,7.70913E-3,-5.2480426E-2,-1.2989717E-3,-3.383496E-2,-5.1359154E-2,-2.4379881E-2,-4.3571714E-2,8.559164E-3,-2.316374E-2,-3.3348676E-2,-1.563983E-3,-4.1696023E-2,8.507217E-3,-5.085103E-2,-7.7115707E-3,2.9981574E-2,7.0645805E-3,-4.4122737E-2,2.5449127E-3,-1.5939547E-2,-3.7392702E-2,-3.365531E-2,4.113755E-3,-3.7712876E-2,-6.9898495E-4,-3.824948E-2,1.18584065E-2,-3.174491E-2,4.6170233E-3,-1.905101E-2,2.4849687E-2,3.5530597E-2,6.671968E-2,-6.2179323E-2,-2.334369E-2,6.581151E-2,3.8323734E-2,-2.4873486E-2,9.840993E-3,1.9013174E-2,4.0691223E-2,-4.5563612E-2,1.0864623E-2,-2.9292906E-2,8.068544E-4,-5.6185197E-2,2.4510898E-2,-3.5374608E-2,-1.6716162E-3,-3.9436877E-2,2.5223238E-2,3.992756E-2,6.1294693E-2,-4.5061614E-2,-4.1315667E-3,5.004036E-2,6.784832E-2,-1.5391235E-2,3.0518645E-2,-5.59578E-2,-1.9810231E-2,-4.8843143E-3,1.9576093E-2,-5.8219638E-2,3.2335304E-2],"split_indices":[31,34,22,53,68,52,24,17,39,17,2,14,17,21,7,39,68,15,17,17,15,15,5,15,15,14,14,43,14,7,21,18,15,15,15,39,14,8,15,13,15,9,8,9,38,9,35,0,32,6,14,5,17,15,15,17,5,2,49,5,4,13,14,0,0,0,0,0,0,0,0,0,0,0,0,0,0,0,0,0,0,0,0,0,0,0,0,0,0,0,0,0,0,0,0,0,0,0,0,0,0,0,0,0,0,0,0,0,0,0,0,0,0,0,0,0,0,0,0,0,0,0,0,0,0,0,0],"split_type":[0,0,0,0,0,0,0,0,0,0,0,0,0,0,0,0,0,0,0,0,0,0,0,0,0,0,0,0,0,0,0,0,0,0,0,0,0,0,0,0,0,0,0,0,0,0,0,0,0,0,0,0,0,0,0,0,0,0,0,0,0,0,0,0,0,0,0,0,0,0,0,0,0,0,0,0,0,0,0,0,0,0,0,0,0,0,0,0,0,0,0,0,0,0,0,0,0,0,0,0,0,0,0,0,0,0,0,0,0,0,0,0,0,0,0,0,0,0,0,0,0,0,0,0,0,0,0],"sum_hessian":[4.8135066E5,2.3609384E5,2.4525681E5,1.2217482E5,1.1391903E5,1.1274667E5,1.3251014E5,1.0372312E5,1.84517E4,8.042267E4,3.349636E4,2.2938354E4,8.980831E4,6.47267E4,6.7783445E4,6.915545E4,3.4567668E4,1.4813849E4,3.6378506E3,4.886814E4,3.1554531E4,1.2768855E4,2.0727506E4,5.0629336E3,1.787542E4,7.357351E3,8.245097E4,2.0115176E4,4.4611523E4,5.1101724E3,6.2673273E4,2.2096045E4,4.7059406E4,2.5979371E4,8.588297E3,1.1713214E4,3.1006348E3,3.5042194E2,3.2874285E3,1.1740254E4,3.7127887E4,2.7011613E4,4.542919E3,9.435353E3,3.333503E3,1.481234E4,5.915166E3,2.6967203E2,4.7932617E3,1.9015869E3,1.5973833E4,5.707255E3,1.6500961E3,1.9237229E4,6.321374E4,1.3556954E4,6.558221E3,7.564198E2,4.3855105E4,3.9390078E3,1.1711648E3,1.9337883E4,4.333539E4,2.1787414E4,3.0862967E2,3.6388582E4,1.0670826E4,1.9051168E4,6.9282026E3,5.2324004E3,3.3558967E3,1.9521818E3,9.761031E3,2.9445898E3,1.5604497E2,8.60382E1,2.6438373E2,2.251917E3,1.0355116E3,1.133548E4,4.0477365E2,2.8289928E4,8.837958E3,2.75907E3,2.4252543E4,3.5948997E3,9.480191E2,1.1114972E3,8.323855E3,2.7766106E3,5.568924E2,1.4799934E3,1.3332347E4,3.4660696E3,2.4490964E3,1.0236222E2,1.673098E2,1.8793158E3,2.9139458E3,1.5416211E3,3.5996585E2,1.0645589E4,5.3282446E3,5.5393047E3,1.6795024E2,8.7670966E2,7.733864E2,1.8754327E3,1.7361795E4,8.6707295E3,5.4543008E4,5.032604E2,1.3053693E4,3.645213E3,2.9130085E3,3.2423502E2,4.3218478E2,2.8594014E4,1.5261093E4,3.6581614E3,2.8084647E2,7.5612854E2,4.150362E2,1.0256015E4,9.081867E3,6.004357E2,4.2734957E4],"tree_param":{"num_deleted":"0","num_feature":"70","num_nodes":"127","size_leaf_vector":"1"}},{"base_weights":[-4.1187017E-5,-3.82701E-1,3.698923E-1,-6.0590875E-1,-1.447328E-1,1.8543598E-1,8.3369035E-1,-6.895737E-1,-1.3797465E-1,-3.362844E-1,3.1849536E-1,4.421075E-1,-4.6717033E-2,5.808976E-1,1.1175613E0,-8.3381104E-1,-4.784404E-1,1.8523725E-2,-4.8834E-1,-4.2773834E-1,1.4523607E-1,1.6755109E-1,8.5171974E-1,3.2666954E-1,8.839418E-1,-5.9384143E-1,4.7006477E-2,7.375855E-2,7.1237206E-1,-4.0762168E-1,1.1501377E0,-9.2564934E-1,-6.34795E-1,-5.956773E-1,-5.60557E-2,1.332944E-1,-4.2173946E-1,-2.2824399E-1,-7.446625E-1,-8.314696E-1,-3.4559813E-1,1.4046272E-2,7.7713263E-1,-3.5571998E-1,2.9416224E-1,-4.8685494E-1,9.313254E-1,-1.7676066E-1,4.247369E-1,7.462367E-1,1.1634926E0,-2.50757E-1,-7.4126965E-1,-4.4798297E-1,1.16097115E-1,-7.03058E-1,1.8933064E-1,3.4317052E-1,8.3457E-1,2.3406914E-1,-8.265012E-1,1.0397056E0,1.3578242E0,-5.346501E-2,-4.2872652E-2,-4.7134176E-2,-2.4515927E-2,-4.702029E-2,-2.6678963E-2,-2.0854278E-2,4.3375595E-3,-1.4720025E-2,1.2362324E-2,-3.4360554E-2,6.498468E-3,-5.6891557E-2,-2.9144732E-3,-4.7435965E-2,-2.5304357E-2,-6.379197E-2,-3.905178E-2,-1.1673262E-2,-3.38277E-2,-7.7431533E-3,2.1737026E-2,2.557303E-2,6.677351E-2,-1.4131397E-2,-7.3844716E-2,2.3265777E-2,-5.8886833E-3,-5.7953555E-2,-1.8045379E-2,3.9132174E-2,7.036619E-2,-4.2566042E-2,-1.7206075E-3,1.3701539E-2,3.6086682E-2,2.52517E-2,4.367539E-2,5.2051693E-2,6.577734E-2,-6.445679E-2,5.199368E-4,-3.8943794E-2,1.1423529E-2,-8.049958E-3,-3.186533E-2,-2.2270188E-2,8.802209E-3,-2.1814292E-2,-6.9887385E-2,3.534482E-2,-3.4268037E-3,9.998307E-3,3.317145E-2,3.501798E-2,5.4382425E-2,-4.8135924E-3,4.8825596E-2,-4.648776E-2,5.978905E-2,4.46474E-2,6.1231684E-2,5.8039334E-2,7.0754476E-2],"categories":[],"categories_nodes":[],"categories_segments":[],"categories_sizes":[],"default_left":[1,1,0,1,0,0,1,0,0,0,0,1,0,0,0,0,0,0,0,0,0,0,0,0,0,0,0,0,0,0,1,0,0,0,0,0,0,0,0,0,0,0,0,0,0,0,0,0,0,0,0,0,0,0,0,0,0,0,0,0,0,0,0,0,0,0,0,0,0,0,0,0,0,0,0,0,0,0,0,0,0,0,0,0,0,0,0,0,0,0,0,0,0,0,0,0,0,0,0,0,0,0,0,0,0,0,0,0,0,0,0,0,0,0,0,0,0,0,0,0,0,0,0,0,0,0,0],"id":9,"left_children":[1,3,5,7,9,11,13,15,17,19,21,23,25,27,29,31,33,35,37,39,41,43,45,47,49,51,53,55,57,59,61,63,65,67,69,71,73,75,77,79,81,83,85,87,89,91,93,95,97,99,101,103,105,107,109,111,113,115,117,119,121,123,125,-1,-1,-1,-1,-1,-1,-1,-1,-1,-1,-1,-1,-1,-1,-1,-1,-1,-1,-1,-1,-1,-1,-1,-1,-1,-1,-1,-1,-1,-1,-1,-1,-1,-1,-1,-1,-1,-1,-1,-1,-1,-1,-1,-1,-1,-1,-1,-1,-1,-1,-1,-1,-1,-1,-1,-1,-1,-1,-1,-1,-1,-1,-1,-1],"loss_changes":[6.7866914E4,1.2517285E4,2.0854195E4,4.760535E3,1.012087E4,1.0392348E4,4.976789E3,3.1410508E3,1.0113942E3,3.5535283E3,2.6855505E3,4.2243604E3,4.695989E3,2.446376E3,1.6237461E3,1.1195547E3,2.0733936E3,6.4436145E2,3.7951843E2,2.248582E3,1.0677484E3,1.7231475E3,7.8488525E2,3.2423428E3,6.596123E2,6.7724805E2,2.6739277E3,6.784033E2,1.3142695E3,1.8403935E2,7.3225E2,4.09875E2,8.604761E2,7.0109766E2,4.6910492E2,4.930537E2,3.863027E2,4.371441E2,1.3914014E2,2.5591992E2,2.091079E3,7.5805347E2,3.277848E2,4.1483942E2,1.4764945E3,3.4622055E1,4.906714E2,1.0281716E3,2.4600322E3,3.5251807E2,1.04032715E2,1.0920432E3,3.4178516E2,5.2022375E2,2.3095068E3,1.8075613E2,8.778747E2,3.3225037E2,7.427842E2,6.6539444E1,8.7569855E1,5.658047E2,1.2361914E2,0E0,0E0,0E0,0E0,0E0,0E0,0E0,0E0,0E0,0E0,0E0,0E0,0E0,0E0,0E0,0E0,0E0,0E0,0E0,0E0,0E0,0E0,0E0,0E0,0E0,0E0,0E0,0E0,0E0,0E0,0E0,0E0,0E0,0E0,0E0,0E0,0E0,0E0,0E0,0E0,0E0,0E0,0E0,0E0,0E0,0E0,0E0,0E0,0E0,0E0,0E0,0E0,0E0,0E0,0E0,0E0,0E0,0E0,0E0,0E0,0E0,0E0,0E0,0E0],"parents":[2147483647,0,0,1,1,2,2,3,3,4,4,5,5,6,6,7,7,8,8,9,9,10,10,11,11,12,12,13,13,14,14,15,15,16,16,17,17,18,18,19,19,20,20,21,21,22,22,23,23,24,24,25,25,26,26,27,27,28,28,29,29,30,30,31,31,32,32,33,33,34,34,35,35,36,36,37,37,38,38,39,39,40,40,41,41,42,42,43,43,44,44,45,45,46,46,47,47,48,48,49,49,50,50,51,51,52,52,53,53,54,54,55,55,56,56,57,57,58,58,59,59,60,60,61,61,62,62],"right_children":[2,4,6,8,10,12,14,16,18,20,22,24,26,28,30,32,34,36,38,40,42,44,46,48,50,52,54,56,58,60,62,64,66,68,70,72,74,76,78,80,82,84,86,88,90,92,94,96,98,100,102,104,106,108,110,112,114,116,118,120,122,124,126,-1,-1,-1,-1,-1,-1,-1,-1,-1,-1,-1,-1,-1,-1,-1,-1,-1,-1,-1,-1,-1,-1,-1,-1,-1,-1,-1,-1,-1,-1,-1,-1,-1,-1,-1,-1,-1,-1,-1,-1,-1,-1,-1,-1,-1,-1,-1,-1,-1,-1,-1,-1,-1,-1,-1,-1,-1,-1,-1,-1,-1,-1,-1,-1],"split_conditions":[1.73E0,1.75E0,1E0,4.1538463E0,1E0,1.57E1,3E-1,2.8125E-1,9E0,1.6888132E-2,8.3550826E-2,-1E-5,4.9944124E-3,6.4776517E-3,3.1619312E-3,1E0,1E0,1.7764027E0,1.3524463E0,4.9944124E-3,1.4186E2,6.2455805E-3,6.373773E-3,4.9944124E-3,6.597234E-2,9.714547E-3,4.540024E-3,2.752365E-1,4.042832E-3,4.49E0,3.7592593E-1,9.283956E-3,6.4776517E-3,6.0921283E-3,5.6711077E-3,8.496073E-3,4.5768518E-2,1.0356785E0,4.1879773E-2,2.8006788E-2,1.682495E0,8.600564E-2,1.3841944E0,1E0,1.682495E0,6.2455805E-3,2.3006741E-2,3.1619312E-3,6.7493826E-2,6.6728173E-3,6.595764E-2,5.7489425E-1,1.1738857E-1,7.3E0,2E0,8E0,9.714547E-3,7.28166E-2,7.28166E-2,6.0861558E-2,1.94144E-2,2.8879972E-2,4.713913E-2,-5.346501E-2,-4.2872652E-2,-4.7134176E-2,-2.4515927E-2,-4.702029E-2,-2.6678963E-2,-2.0854278E-2,4.3375595E-3,-1.4720025E-2,1.2362324E-2,-3.4360554E-2,6.498468E-3,-5.6891557E-2,-2.9144732E-3,-4.7435965E-2,-2.5304357E-2,-6.379197E-2,-3.905178E-2,-1.1673262E-2,-3.38277E-2,-7.7431533E-3,2.1737026E-2,2.557303E-2,6.677351E-2,-1.4131397E-2,-7.3844716E-2,2.3265777E-2,-5.8886833E-3,-5.7953555E-2,-1.8045379E-2,3.9132174E-2,7.036619E-2,-4.2566042E-2,-1.7206075E-3,1.3701539E-2,3.6086682E-2,2.52517E-2,4.367539E-2,5.2051693E-2,6.577734E-2,-6.445679E-2,5.199368E-4,-3.8943794E-2,1.1423529E-2,-8.049958E-3,-3.186533E-2,-2.2270188E-2,8.802209E-3,-2.1814292E-2,-6.9887385E-2,3.534482E-2,-3.4268037E-3,9.998307E-3,3.317145E-2,3.501798E-2,5.4382425E-2,-4.8135924E-3,4.8825596E-2,-4.648776E-2,5.978905E-2,4.46474E-2,6.1231684E-2,5.8039334E-2,7.0754476E-2],"split_indices":[29,34,68,53,68,25,25,4,21,0,5,57,17,17,17,68,68,15,15,17,27,17,0,17,5,14,1,10,1,34,49,40,17,9,9,17,18,15,13,13,15,5,7,23,15,8,0,17,5,17,13,15,5,35,21,21,14,13,13,5,0,18,5,0,0,0,0,0,0,0,0,0,0,0,0,0,0,0,0,0,0,0,0,0,0,0,0,0,0,0,0,0,0,0,0,0,0,0,0,0,0,0,0,0,0,0,0,0,0,0,0,0,0,0,0,0,0,0,0,0,0,0,0,0,0,0,0],"split_type":[0,0,0,0,0,0,0,0,0,0,0,0,0,0,0,0,0,0,0,0,0,0,0,0,0,0,0,0,0,0,0,0,0,0,0,0,0,0,0,0,0,0,0,0,0,0,0,0,0,0,0,0,0,0,0,0,0,0,0,0,0,0,0,0,0,0,0,0,0,0,0,0,0,0,0,0,0,0,0,0,0,0,0,0,0,0,0,0,0,0,0,0,0,0,0,0,0,0,0,0,0,0,0,0,0,0,0,0,0,0,0,0,0,0,0,0,0,0,0,0,0,0,0,0,0,0,0],"sum_hessian":[4.7942406E5,2.356585E5,2.4376558E5,1.215997E5,1.1405879E5,1.7440477E5,6.936081E4,1.0315541E5,1.8444295E4,8.069183E4,3.336697E4,8.2828055E4,9.157672E4,3.669036E4,3.267045E4,6.1285086E4,4.187032E4,1.275012E4,5.694174E3,6.7812484E4,1.2879338E4,2.6006426E4,7.360542E3,6.567175E4,1.71563E4,1.3392243E4,7.818448E4,7.553945E3,2.9136416E4,6.82973E2,3.1987477E4,4.1931605E4,1.9353482E4,3.2773355E4,9.096966E3,1.0114186E4,2.6359348E3,2.8272217E3,2.8669524E3,1.1462667E4,5.634982E4,1.0665969E4,2.2133694E3,5.0662637E3,2.0940162E4,4.128765E2,6.9476655E3,1.0706901E4,5.4964848E4,1.1496739E4,5.6595615E3,4.0259766E3,9.366267E3,9.575656E3,6.860882E4,9.776432E2,6.576302E3,7.2463945E3,2.1890021E4,2.6991913E2,4.130539E2,2.0887227E4,1.1100251E4,1.3493585E4,2.8438018E4,6.179357E3,1.3174126E4,5.0003696E3,2.7772984E4,2.577889E3,6.5190767E3,2.1274963E3,7.9866895E3,1.7794515E3,8.564833E2,4.441989E2,2.3830227E3,1.5436611E3,1.3232913E3,1.1658821E3,1.0296784E4,4.209059E4,1.42592295E4,7.6108384E3,3.0551304E3,1.5010469E3,7.1232245E2,4.757371E3,3.0889246E2,1.4793536E4,6.146626E3,6.385607E1,3.4902042E2,5.296047E3,1.6516188E3,1.8648384E3,8.842063E3,3.646381E4,1.850104E4,3.972697E3,7.5240425E3,3.139209E3,2.5203525E3,8.082732E2,3.2177031E3,9.016795E3,3.4947128E2,3.806886E3,5.76877E3,6.6176284E3,6.199119E4,7.075575E2,2.7008566E2,2.1863418E3,4.38996E3,5.0084688E3,2.2379255E3,1.4306751E4,7.5832705E3,1.8740561E2,8.2513535E1,3.9350262E2,1.9551268E1,1.1648715E4,9.238512E3,2.5044075E3,8.595843E3],"tree_param":{"num_deleted":"0","num_feature":"70","num_nodes":"127","size_leaf_vector":"1"}},{"base_weights":[1.5520771E-3,-3.651049E-1,3.5548064E-1,-5.812471E-1,-1.3625328E-1,1.801948E-1,7.9880106E-1,-8.493677E-1,-4.4033775E-1,-3.1791374E-1,3.0378154E-1,6.4071465E-1,6.4899474E-2,5.507561E-1,1.0663005E0,-3.529449E-1,-8.8903886E-1,-5.122563E-1,1.24551415E-1,-4.2646167E-1,3.965278E-2,-5.273147E-2,5.246319E-1,4.8919895E-1,9.197356E-1,-4.27543E-1,1.5546523E-1,1.8447282E-2,6.792841E-1,-5.333474E-2,1.1103467E0,-7.3302054E-1,-2.1290745E-1,-1.0057814E0,-7.6968634E-1,-6.212725E-1,-2.023985E-1,2.4580362E-1,-3.2012573E-1,-7.957477E-1,-3.446749E-1,-7.137513E-2,7.1404195E-1,9.954474E-2,-4.8588622E-1,2.3941328E-1,7.247394E-1,6.447424E-1,2.714754E-1,7.693999E-1,1.1778232E0,-7.7083766E-1,-3.0067316E-1,1.8030262E-1,-1.0770261E0,-1.1753384E0,8.7093726E-2,-1.7260064E-1,7.3225516E-1,3.1371737E-1,-7.2729266E-1,1.3122759E0,1.0013474E0,-3.1242076E-2,-5.1628392E-2,-2.3823288E-4,-2.4632422E-2,-5.079142E-2,-1.1807474E-2,-3.457746E-2,-5.1037412E-2,-4.2716708E-2,-2.619702E-2,-2.7180007E-2,-1.9236658E-4,6.0300725E-3,2.9235227E-2,-2.5555244E-2,1.0195774E-2,-6.396439E-2,-3.7606306E-2,-1.1926701E-2,-3.3016298E-2,-3.9163675E-2,6.129175E-4,4.8806146E-3,4.685394E-2,-2.8039023E-2,1.1893833E-2,-2.9836873E-2,3.4689934E-3,4.5619592E-2,7.0649344E-3,2.7682161E-2,5.2887417E-2,4.770309E-2,2.736324E-2,1.9236792E-2,-4.853079E-3,-1.4176676E-2,3.9627418E-2,-2.0180149E-2,5.996734E-2,-4.2823028E-2,1.5276265E-2,-3.4016606E-3,-3.0476222E-2,-7.969078E-3,1.3501175E-2,-6.496855E-2,-4.8731086E-3,-6.483795E-2,-3.2960173E-2,3.2859005E-2,-9.266942E-3,-5.7868417E-2,7.3000486E-4,1.7960504E-2,4.21195E-2,6.4538717E-3,4.4709723E-2,-4.0724944E-2,5.875312E-2,5.5891275E-2,6.855486E-2,3.9558277E-2,5.6274366E-2],"categories":[],"categories_nodes":[],"categories_segments":[],"categories_sizes":[],"default_left":[1,1,0,0,0,0,1,0,1,0,0,0,0,0,0,0,0,0,0,0,0,0,0,0,0,0,0,0,0,0,0,0,0,0,0,0,0,0,0,0,0,0,0,0,0,0,0,0,0,0,0,0,0,0,0,0,0,0,0,0,0,0,0,0,0,0,0,0,0,0,0,0,0,0,0,0,0,0,0,0,0,0,0,0,0,0,0,0,0,0,0,0,0,0,0,0,0,0,0,0,0,0,0,0,0,0,0,0,0,0,0,0,0,0,0,0,0,0,0,0,0,0,0,0,0,0,0],"id":10,"left_children":[1,3,5,7,9,11,13,15,17,19,21,23,25,27,29,31,33,35,37,39,41,43,45,47,49,51,53,55,57,59,61,63,65,67,69,71,73,75,77,79,81,83,85,87,89,91,93,95,97,99,101,103,105,107,109,111,113,115,117,119,121,123,125,-1,-1,-1,-1,-1,-1,-1,-1,-1,-1,-1,-1,-1,-1,-1,-1,-1,-1,-1,-1,-1,-1,-1,-1,-1,-1,-1,-1,-1,-1,-1,-1,-1,-1,-1,-1,-1,-1,-1,-1,-1,-1,-1,-1,-1,-1,-1,-1,-1,-1,-1,-1,-1,-1,-1,-1,-1,-1,-1,-1,-1,-1,-1,-1],"loss_changes":[6.190445E4,1.1589559E4,1.8861748E4,4.552074E3,9.097436E3,9.236031E3,4.5629844E3,8.171621E2,3.209039E3,3.1265093E3,2.6183918E3,1.4720293E3,6.2046914E3,2.4417031E3,1.6319336E3,1.6342438E2,5.347949E2,2.3667285E3,4.8110425E2,1.8660625E3,1.404713E3,8.391441E2,1.1718208E3,7.643286E2,4.746377E2,9.410427E2,3.5974358E3,5.690152E2,1.297374E3,3.1030286E2,6.994414E2,2.6156189E1,1.308493E2,1.4998438E2,3.7222754E2,1.1753145E3,1.2355027E3,2.9739456E2,1.9144662E2,2.3534961E2,1.6948252E3,9.591057E2,3.6452478E2,8.599827E2,2.0372528E2,5.590176E2,6.8696924E2,3.9648242E2,3.9276666E2,1.8906836E2,1.5397998E2,5.3766504E2,1.1338898E3,3.5106865E3,5.0549268E2,2.2806885E1,1.01984174E3,3.1040994E2,1.111667E3,8.693446E1,7.432634E1,1.2608789E2,5.3871875E2,0E0,0E0,0E0,0E0,0E0,0E0,0E0,0E0,0E0,0E0,0E0,0E0,0E0,0E0,0E0,0E0,0E0,0E0,0E0,0E0,0E0,0E0,0E0,0E0,0E0,0E0,0E0,0E0,0E0,0E0,0E0,0E0,0E0,0E0,0E0,0E0,0E0,0E0,0E0,0E0,0E0,0E0,0E0,0E0,0E0,0E0,0E0,0E0,0E0,0E0,0E0,0E0,0E0,0E0,0E0,0E0,0E0,0E0,0E0,0E0,0E0,0E0,0E0,0E0],"parents":[2147483647,0,0,1,1,2,2,3,3,4,4,5,5,6,6,7,7,8,8,9,9,10,10,11,11,12,12,13,13,14,14,15,15,16,16,17,17,18,18,19,19,20,20,21,21,22,22,23,23,24,24,25,25,26,26,27,27,28,28,29,29,30,30,31,31,32,32,33,33,34,34,35,35,36,36,37,37,38,38,39,39,40,40,41,41,42,42,43,43,44,44,45,45,46,46,47,47,48,48,49,49,50,50,51,51,52,52,53,53,54,54,55,55,56,56,57,57,58,58,59,59,60,60,61,61,62,62],"right_children":[2,4,6,8,10,12,14,16,18,20,22,24,26,28,30,32,34,36,38,40,42,44,46,48,50,52,54,56,58,60,62,64,66,68,70,72,74,76,78,80,82,84,86,88,90,92,94,96,98,100,102,104,106,108,110,112,114,116,118,120,122,124,126,-1,-1,-1,-1,-1,-1,-1,-1,-1,-1,-1,-1,-1,-1,-1,-1,-1,-1,-1,-1,-1,-1,-1,-1,-1,-1,-1,-1,-1,-1,-1,-1,-1,-1,-1,-1,-1,-1,-1,-1,-1,-1,-1,-1,-1,-1,-1,-1,-1,-1,-1,-1,-1,-1,-1,-1,-1,-1,-1,-1,-1,-1,-1,-1],"split_conditions":[1.73E0,1.73E0,1E0,8.641975E-3,1E0,2.25E0,-1E-5,1E0,-1E-5,1.439146E-2,7.857264E-1,1E0,4.9944124E-3,6.4776517E-3,4.6527395E-3,5.1299343E-3,1.1268821E-2,1E0,1.7764027E0,4.9944124E-3,1.4627E2,1.682495E0,6.139128E-2,3E0,6.98062E-2,3.1619312E-3,1E0,7.70913E-3,7.8592E-1,4.49E0,8.666667E0,1.5289273E0,1.3524463E0,2.7633544E-2,1.622161E0,9.772883E-1,6.728326E-3,1E0,2.8611783E-2,2.982399E-3,1.682495E0,6.0921283E-3,1.2594389E-2,2.0833334E-3,1.719E1,8.666667E0,1.2733708E-2,9.714547E-3,1.78E1,4.485827E-1,4.843123E-3,1.2130847E-1,6.048387E-3,1.0660591E-2,1.0090836E-1,1.7074136E-2,9.714547E-3,8.107645E-3,3.8503164E-3,7.857264E-1,1.94144E-2,4.713913E-2,7.782558E-1,-3.1242076E-2,-5.1628392E-2,-2.3823288E-4,-2.4632422E-2,-5.079142E-2,-1.1807474E-2,-3.457746E-2,-5.1037412E-2,-4.2716708E-2,-2.619702E-2,-2.7180007E-2,-1.9236658E-4,6.0300725E-3,2.9235227E-2,-2.5555244E-2,1.0195774E-2,-6.396439E-2,-3.7606306E-2,-1.1926701E-2,-3.3016298E-2,-3.9163675E-2,6.129175E-4,4.8806146E-3,4.685394E-2,-2.8039023E-2,1.1893833E-2,-2.9836873E-2,3.4689934E-3,4.5619592E-2,7.0649344E-3,2.7682161E-2,5.2887417E-2,4.770309E-2,2.736324E-2,1.9236792E-2,-4.853079E-3,-1.4176676E-2,3.9627418E-2,-2.0180149E-2,5.996734E-2,-4.2823028E-2,1.5276265E-2,-3.4016606E-3,-3.0476222E-2,-7.969078E-3,1.3501175E-2,-6.496855E-2,-4.8731086E-3,-6.483795E-2,-3.2960173E-2,3.2859005E-2,-9.266942E-3,-5.7868417E-2,7.3000486E-4,1.7960504E-2,4.21195E-2,6.4538717E-3,4.4709723E-2,-4.0724944E-2,5.875312E-2,5.5891275E-2,6.855486E-2,3.9558277E-2,5.6274366E-2],"split_indices":[29,24,68,17,68,58,24,57,57,0,2,67,17,17,17,17,39,68,15,17,27,15,5,57,5,17,23,14,7,34,53,15,15,6,15,41,9,68,8,0,15,9,6,9,28,53,6,14,28,2,1,5,9,39,5,0,14,0,1,2,0,5,2,0,0,0,0,0,0,0,0,0,0,0,0,0,0,0,0,0,0,0,0,0,0,0,0,0,0,0,0,0,0,0,0,0,0,0,0,0,0,0,0,0,0,0,0,0,0,0,0,0,0,0,0,0,0,0,0,0,0,0,0,0,0,0,0],"split_type":[0,0,0,0,0,0,0,0,0,0,0,0,0,0,0,0,0,0,0,0,0,0,0,0,0,0,0,0,0,0,0,0,0,0,0,0,0,0,0,0,0,0,0,0,0,0,0,0,0,0,0,0,0,0,0,0,0,0,0,0,0,0,0,0,0,0,0,0,0,0,0,0,0,0,0,0,0,0,0,0,0,0,0,0,0,0,0,0,0,0,0,0,0,0,0,0,0,0,0,0,0,0,0,0,0,0,0,0,0,0,0,0,0,0,0,0,0,0,0,0,0,0,0,0,0,0,0],"sum_hessian":[4.7702866E5,2.343012E5,2.4272745E5,1.20495734E5,1.1380547E5,1.7395016E5,6.8777305E4,4.1508617E4,7.898712E4,8.055151E4,3.325396E4,3.482908E4,1.3912108E5,3.5687926E4,3.3089375E4,3.0723848E3,3.843623E4,7.00667E4,8.920413E3,6.1792664E4,1.8758842E4,1.2720443E4,2.053352E4,2.257371E4,1.2255367E4,2.161079E4,1.1751029E5,6.941268E3,2.8746658E4,1.2524467E3,3.1836928E4,8.260818E2,2.246303E3,1.9426812E4,1.9009418E4,5.1830395E4,1.8236312E4,7.009537E3,1.9108763E3,1.1202424E4,5.0590242E4,1.6107827E4,2.6510144E3,9.412304E3,3.3081396E3,8.467191E3,1.2066327E4,1.3165913E4,9.407799E3,7.7468286E3,4.5085386E3,5.830116E3,1.5780673E4,1.1518981E5,2.3204731E3,3.7656415E2,6.564704E3,1.6827229E3,2.7063936E4,8.1118964E2,4.41257E2,1.1156896E4,2.0680031E4,6.091708E2,2.1691101E2,1.2885599E3,9.5774304E2,1.9176162E4,2.5065175E2,1.4500297E4,4.5091206E3,1.5266651E4,3.6563742E4,6.7076924E3,1.1528619E4,5.119548E3,1.8899893E3,1.4005067E3,5.103696E2,9.2463434E2,1.027779E4,3.7860887E4,1.2729352E4,1.6925205E3,1.4415307E4,7.047268E2,1.9462875E3,1.629735E3,7.782569E3,2.7575566E3,5.5058295E2,1.0763173E3,7.3908745E3,7.972706E3,4.0936208E3,3.152741E3,1.0013172E4,7.1961895E3,2.211609E3,1.6640651E2,7.580422E3,6.0300243E1,4.4482383E3,5.400703E3,4.294128E2,9.001546E3,6.779127E3,2.4067863E4,9.112195E4,1.8909355E3,4.2953772E2,3.0362427E2,7.293988E1,2.122272E3,4.442432E3,2.6795673E2,1.4147662E3,6.169853E3,2.0894082E4,6.1635876E2,1.9483089E2,4.2246262E2,1.8794352E1,2.5957908E3,8.561106E3,7.6816147E3,1.2998416E4],"tree_param":{"num_deleted":"0","num_feature":"70","num_nodes":"127","size_leaf_vector":"1"}},{"base_weights":[-5.140221E-4,-3.499516E-1,3.361567E-1,-5.567901E-1,-1.3221812E-1,3.776626E-2,5.916731E-1,-7.183153E-1,-3.3175138E-1,-3.0326694E-1,2.827027E-1,4.6995434E-1,-7.218415E-2,8.522334E-1,3.4794834E-1,-2.1313754E-1,-7.662999E-1,-4.4941247E-1,7.15019E-2,-4.2620376E-1,1.3112053E-2,1.4251532E-1,7.8569996E-1,8.115053E-1,3.7286958E-1,-4.633275E-1,1.4650536E-2,5.623452E-1,9.8534465E-1,-3.822487E-1,4.0737522E-1,-8.454028E-2,-6.056421E-1,-6.8804806E-1,-9.835692E-1,-5.2009964E-1,9.7062044E-2,-4.573763E-2,5.124018E-1,-4.654561E-1,4.18085E-1,-1.23731695E-1,4.0988892E-1,-4.7384152E-1,2.4168858E-1,-4.278541E-1,8.601494E-1,-7.6223606E-1,8.993763E-1,-3.944081E-1,4.6393335E-1,-9.1311194E-2,-6.561574E-1,-5.7966924E-1,5.6054857E-2,8.922562E-1,4.14766E-1,-4.4223356E-1,1.0106394E0,-2.516145E-1,-8.273202E-1,1.0929099E-1,5.4331756E-1,-3.337548E-2,3.2823015E-4,-2.4267063E-2,-5.490489E-2,-4.6163965E-2,-2.8972855E-2,-5.0794184E-2,-2.0051358E-2,-3.848398E-2,-2.0980723E-2,-1.2535728E-2,1.27984425E-2,5.305846E-3,-1.768454E-2,-1.277072E-2,2.8830085E-2,-4.657258E-2,-2.0556819E-2,-8.9647565E-3,2.8795928E-2,-2.420136E-3,-3.216487E-2,2.5075031E-2,-2.5504693E-2,-4.719945E-2,-1.5602231E-2,-2.4462067E-2,1.6611844E-2,-1.5259287E-2,-5.4580808E-2,3.5961844E-2,6.625151E-2,-6.501032E-2,-2.1467574E-2,5.1325947E-2,1.43142715E-2,-3.796195E-2,-1.0011016E-2,1.6381523E-2,3.6819648E-2,-4.9041208E-2,1.7025281E-3,5.7561384E-3,-3.6117483E-2,-3.199402E-2,2.521399E-2,-5.2633714E-2,3.9766547E-3,3.8151983E-2,5.7836752E-2,1.0564415E-2,3.1629942E-2,-2.9986506E-2,1.6506923E-2,6.149259E-2,4.4761505E-2,-1.5848285E-2,2.9379994E-2,-5.4027636E-2,-1.7938765E-2,-3.5125748E-3,2.0633833E-2,-3.1619985E-2,2.8759792E-2],"categories":[],"categories_nodes":[],"categories_segments":[],"categories_sizes":[],"default_left":[1,1,0,0,0,0,0,0,0,0,0,0,0,0,0,0,0,1,1,1,0,0,0,0,0,0,0,0,0,0,0,0,0,0,0,0,0,0,0,0,0,0,0,0,0,0,0,0,0,0,0,0,0,0,0,0,0,0,0,0,0,0,0,0,0,0,0,0,0,0,0,0,0,0,0,0,0,0,0,0,0,0,0,0,0,0,0,0,0,0,0,0,0,0,0,0,0,0,0,0,0,0,0,0,0,0,0,0,0,0,0,0,0,0,0,0,0,0,0,0,0,0,0,0,0,0,0],"id":11,"left_children":[1,3,5,7,9,11,13,15,17,19,21,23,25,27,29,31,33,35,37,39,41,43,45,47,49,51,53,55,57,59,61,63,65,67,69,71,73,75,77,79,81,83,85,87,89,91,93,95,97,99,101,103,105,107,109,111,113,115,117,119,121,123,125,-1,-1,-1,-1,-1,-1,-1,-1,-1,-1,-1,-1,-1,-1,-1,-1,-1,-1,-1,-1,-1,-1,-1,-1,-1,-1,-1,-1,-1,-1,-1,-1,-1,-1,-1,-1,-1,-1,-1,-1,-1,-1,-1,-1,-1,-1,-1,-1,-1,-1,-1,-1,-1,-1,-1,-1,-1,-1,-1,-1,-1,-1,-1,-1],"loss_changes":[5.578495E4,1.0478719E4,1.8412896E4,4.337117E3,8.045069E3,5.293924E3,8.261508E3,1.6836914E3,2.3658066E3,3.1219282E3,2.3331646E3,7.4890283E2,3.016492E3,2.4256719E3,2.9171318E3,3.0416602E2,1.077875E3,1.4910815E3,5.822293E2,1.9158623E3,1.2196796E3,1.5819775E3,6.519541E2,6.921123E2,1.2295728E3,1.1573694E3,1.7884612E3,9.6308984E2,1.5563867E3,2.9396545E2,2.5189336E3,2.4117705E2,8.757294E1,1.190916E3,3.1576074E2,8.5683496E2,2.4443149E2,4.161561E2,1.16774536E2,1.3978223E3,2.4228497E2,6.536901E2,4.8576422E2,2.7257416E2,1.4755808E3,3.3663506E1,4.441963E2,4.6890335E1,3.6887866E2,1.3213467E2,5.8388135E2,6.1437683E2,5.425864E2,3.0926416E2,1.7687837E3,2.0810498E2,6.059656E2,9.1538956E1,1.0700352E3,2.1478737E2,1.3578137E2,1.060654E3,1.6004805E3,0E0,0E0,0E0,0E0,0E0,0E0,0E0,0E0,0E0,0E0,0E0,0E0,0E0,0E0,0E0,0E0,0E0,0E0,0E0,0E0,0E0,0E0,0E0,0E0,0E0,0E0,0E0,0E0,0E0,0E0,0E0,0E0,0E0,0E0,0E0,0E0,0E0,0E0,0E0,0E0,0E0,0E0,0E0,0E0,0E0,0E0,0E0,0E0,0E0,0E0,0E0,0E0,0E0,0E0,0E0,0E0,0E0,0E0,0E0,0E0,0E0,0E0,0E0,0E0],"parents":[2147483647,0,0,1,1,2,2,3,3,4,4,5,5,6,6,7,7,8,8,9,9,10,10,11,11,12,12,13,13,14,14,15,15,16,16,17,17,18,18,19,19,20,20,21,21,22,22,23,23,24,24,25,25,26,26,27,27,28,28,29,29,30,30,31,31,32,32,33,33,34,34,35,35,36,36,37,37,38,38,39,39,40,40,41,41,42,42,43,43,44,44,45,45,46,46,47,47,48,48,49,49,50,50,51,51,52,52,53,53,54,54,55,55,56,56,57,57,58,58,59,59,60,60,61,61,62,62],"right_children":[2,4,6,8,10,12,14,16,18,20,22,24,26,28,30,32,34,36,38,40,42,44,46,48,50,52,54,56,58,60,62,64,66,68,70,72,74,76,78,80,82,84,86,88,90,92,94,96,98,100,102,104,106,108,110,112,114,116,118,120,122,124,126,-1,-1,-1,-1,-1,-1,-1,-1,-1,-1,-1,-1,-1,-1,-1,-1,-1,-1,-1,-1,-1,-1,-1,-1,-1,-1,-1,-1,-1,-1,-1,-1,-1,-1,-1,-1,-1,-1,-1,-1,-1,-1,-1,-1,-1,-1,-1,-1,-1,-1,-1,-1,-1,-1,-1,-1,-1,-1,-1,-1,-1,-1,-1,-1],"split_conditions":[1.73E0,1.73E0,1E0,3E-1,1E0,6E0,2.093E1,1.5E0,1E0,6.921923E-2,8.3550826E-2,9.714547E-3,3.632615E-1,5E0,7.8592E-1,1.682495E0,1.682495E0,-1E-5,3.857143E0,-1E-5,1.7074136E-2,2.0833334E-3,6.373773E-3,5.7489425E-1,8.1053495E-1,7.2E0,1.0416667E-3,4.09E2,7.70913E-3,7.3822355E-1,5E0,5.3344276E-3,1.7764027E0,6.2455805E-3,2.7633544E-2,9.772883E-1,4.5590263E-2,1.5571345E0,3.770566E-3,8.551277E-1,1.0356785E0,1.9845858E0,1.32E1,4.1879773E-2,5.422034E-3,1.8903593E0,2.3006741E-2,7.575758E-3,1.2E1,3.99491E-1,1.4051386E-2,1.8709677E-1,1.197E1,3.1502016E-2,5.7489425E-1,6.98062E-2,6.568692E-2,1.5445E2,3.22E2,1.0728343E-1,6.25E-3,6.9497325E-2,5.7489425E-1,-3.337548E-2,3.2823015E-4,-2.4267063E-2,-5.490489E-2,-4.6163965E-2,-2.8972855E-2,-5.0794184E-2,-2.0051358E-2,-3.848398E-2,-2.0980723E-2,-1.2535728E-2,1.27984425E-2,5.305846E-3,-1.768454E-2,-1.277072E-2,2.8830085E-2,-4.657258E-2,-2.0556819E-2,-8.9647565E-3,2.8795928E-2,-2.420136E-3,-3.216487E-2,2.5075031E-2,-2.5504693E-2,-4.719945E-2,-1.5602231E-2,-2.4462067E-2,1.6611844E-2,-1.5259287E-2,-5.4580808E-2,3.5961844E-2,6.625151E-2,-6.501032E-2,-2.1467574E-2,5.1325947E-2,1.43142715E-2,-3.796195E-2,-1.0011016E-2,1.6381523E-2,3.6819648E-2,-4.9041208E-2,1.7025281E-3,5.7561384E-3,-3.6117483E-2,-3.199402E-2,2.521399E-2,-5.2633714E-2,3.9766547E-3,3.8151983E-2,5.7836752E-2,1.0564415E-2,3.1629942E-2,-2.9986506E-2,1.6506923E-2,6.149259E-2,4.4761505E-2,-1.5848285E-2,2.9379994E-2,-5.4027636E-2,-1.7938765E-2,-3.5125748E-3,2.0633833E-2,-3.1619985E-2,2.8759792E-2],"split_indices":[29,24,22,4,68,52,28,57,68,5,5,14,10,21,7,15,15,57,53,57,0,9,0,15,15,30,1,44,14,7,21,17,7,17,14,41,5,15,1,15,15,15,25,13,17,15,0,0,30,10,14,10,33,0,15,5,5,27,61,5,4,13,15,0,0,0,0,0,0,0,0,0,0,0,0,0,0,0,0,0,0,0,0,0,0,0,0,0,0,0,0,0,0,0,0,0,0,0,0,0,0,0,0,0,0,0,0,0,0,0,0,0,0,0,0,0,0,0,0,0,0,0,0,0,0,0,0],"split_type":[0,0,0,0,0,0,0,0,0,0,0,0,0,0,0,0,0,0,0,0,0,0,0,0,0,0,0,0,0,0,0,0,0,0,0,0,0,0,0,0,0,0,0,0,0,0,0,0,0,0,0,0,0,0,0,0,0,0,0,0,0,0,0,0,0,0,0,0,0,0,0,0,0,0,0,0,0,0,0,0,0,0,0,0,0,0,0,0,0,0,0,0,0,0,0,0,0,0,0,0,0,0,0,0,0,0,0,0,0,0,0,0,0,0,0,0,0,0,0,0,0,0,0,0,0,0,0],"sum_hessian":[4.7417672E5,2.3267669E5,2.4150005E5,1.1932292E5,1.1335377E5,1.1140413E5,1.3009591E5,6.946273E4,4.986019E4,8.0265164E4,3.3088605E4,2.2593064E4,8.881107E4,6.2875117E4,6.722079E4,6.026087E3,6.343664E4,3.8597973E4,1.1262219E4,5.7803754E4,2.246141E4,2.5877674E4,7.2109307E3,4.998972E3,1.7594092E4,1.6133598E4,7.267748E4,1.978745E4,4.3087668E4,5.0586084E3,6.216218E4,4.5398877E3,1.4861995E3,4.664214E4,1.6794504E4,3.417716E4,4.4208125E3,8.89725E3,2.3649683E3,5.5236188E4,2.5675698E3,1.670183E4,5.75958E3,3.586151E3,2.2291521E4,4.165331E2,6.7943975E3,2.639545E2,4.7350176E3,1.8662512E3,1.5727842E4,5.508268E3,1.0625329E4,4.7325923E3,6.794488E4,6.114201E3,1.3673249E4,7.498755E2,4.2337793E4,3.9119626E3,1.146646E3,1.9470506E4,4.269167E4,6.12736E2,3.9271516E3,1.1960137E3,2.901857E2,1.4728835E4,3.1913305E4,1.5911145E4,8.8335864E2,9.808545E3,2.4368617E4,1.3862805E3,3.0345322E3,5.9593135E3,2.937937E3,1.822554E2,2.182713E3,5.764847E3,4.947134E4,5.365729E2,2.0309971E3,1.4587903E4,2.1139268E3,5.2383965E3,5.211834E2,9.1692554E2,2.6692253E3,2.456621E3,1.9834902E4,3.5279388E2,6.3739258E1,5.2159194E3,1.5784781E3,9.9785934E1,1.6416856E2,3.9211716E3,8.1384625E2,6.472738E2,1.2189773E3,1.048482E4,5.243021E3,6.795623E2,4.8287056E3,8.397479E2,9.785581E3,4.483929E3,2.4866321E2,1.4080433E3,6.6536836E4,4.1100415E3,2.0041594E3,7.0705845E3,6.6026646E3,6.230509E2,1.2682456E2,1.4598761E4,2.7739033E4,3.6299167E3,2.82046E2,7.435023E2,4.0314365E2,1.2232266E4,7.2382397E3,1.1264849E3,4.1565188E4],"tree_param":{"num_deleted":"0","num_feature":"70","num_nodes":"127","size_leaf_vector":"1"}},{"base_weights":[6.76914E-5,-3.3524555E-1,3.2242984E-1,-1.2436402E-1,-5.3560567E-1,3.7076443E-2,5.679673E-1,-2.887851E-1,2.742583E-1,-6.699127E-1,-2.8635287E-1,2.6081017E-1,-1.668596E-1,8.1870383E-1,3.3517453E-1,-5.14832E-1,-1.211909E-1,4.922886E-2,5.889649E-1,-7.3496526E-1,-2.7372497E-1,-4.037603E-1,